има 0.37159 0.12412 -0.043589 -0.27404 0.17829 -0.47606 -0.30125 -0.14207 -0.085954 -0.042929 0.059923 -0.45572 -0.10587 0.26961 -0.43694 0.17786 0.25369 -0.1538 -0.034719 -0.39797 -0.14865 -0.233 0.059456 -0.089423 -0.081959 -0.059927 0.043537 0.047061 0.31897 -0.060392 -0.14117 -0.21272 0.18795 -0.25147 0.026036 0.13994 -0.16419 0.07188 0.17572 -0.0093262 0.018596 0.30998 -0.019227 -0.13456 -0.0072999 0.092334 -0.22619 -0.064962 0.007941 -0.029595 -0.012019 0.079291 -0.17229 -0.032969 0.089726 -0.16129 -0.039135 -0.082133 -0.12095 -0.13848 0.21105 0.0060684 0.018534 0.0253 0.14318 -0.1607 -0.29266 0.41608 0.16724 0.050716 -0.14046 0.17941 0.028449 -0.029938 0.053021 -0.16827 -0.06211 0.31656 0.041446 0.17562 -0.028116 -0.39091 0.28737 0.080199 -0.1545 -0.29474 -0.17891 -0.23641 -0.21484 0.050477 -0.22645 -0.090025 0.094489 -0.18804 -0.039682 -0.35183 -0.34241 -0.088409 -0.42795 -0.061347 0.17811 0.049019 -0.035242 0.34845 0.033622 0.09383 -0.28981 0.039508 -0.14147 0.18147 -0.045091 0.22857 0.25539 -0.2587 -0.23098 -0.00169 0.29188 0.29613 -0.063495 0.1996 0.35828 0.29854 0.1498 0.038244 -0.20886 -0.080467 0.34261 -0.25429 0.42303 -0.076044 -0.12925 0.14314 -0.048126 -0.39552 -0.31295 -0.098542 -0.42557 0.15969 -0.071981 -0.42125 0.05937 0.12493 0.104 -0.13202 0.03284 -0.010604 0.26839 -0.016395 -0.49274 -0.13501 0.044569 -0.38553 0.16976 -0.1299 -0.26955 -0.071737 0.0060802 0.27665 -0.0078461 0.081847 0.11953 0.33955 -0.17627 0.3557 0.0095335 -0.021584 -0.41977 0.32291 0.018377 -0.2224 0.059103 -0.068423 0.24508 0.24354 -0.02245 0.22877 -0.30081 0.34388 0.11282 0.001507 -0.029716 -0.30516 -0.25963 0.13974 -0.0064629 -0.11727 0.084176 -0.28031 -0.0075475 -0.153 0.035616 -0.13807 0.51304 0.097693 -0.083231 0.079515 -0.36453 0.16773 0.151 -0.10106 0.01868 -0.22256 0.063041 -0.1269 -0.26921 -0.26694 -0.082097 0.11072 -0.089084 0.088464 0.070734 -0.0082413 -0.25714 0.21116 0.007203 -0.10549 -0.12134 0.10256 0.040612 0.30105 0.19813 -0.001792 0.10547 -0.21424 -0.26472 -0.47507 0.33384 -0.43846 -0.095706 -0.242 0.33573 0.19019 -0.26244 0.10433 0.13744 0.20158 -0.034911 -0.5623 0.14464 0.37782 0.06002 0.33809 -0.052717 -0.26362 0.39055 0.056312 0.1642 0.20414 0.11208 0.074369 0.27415 0.075977 0.1354 -0.22432 0.23336 0.17767 0.10895 -0.078027 -0.059354 -0.017505 0.18754 0.27519 0.21554 0.27728 -0.13702 0.027558 0.33978 0.069757 0.051741 0.019905 -0.095218 0.03502 -0.073666 0.015197 -0.23811 0.0073517 0.30591 -0.037614 0.22757 0.078174 0.35726 0.036642 -0.15621 0.2393 0.11985 0.10325 -0.059178 -0.026018 0.26736 -0.16489 -0.062586 -0.13592 0.13334 0.039521 0.28613 0.10362 0.13555 -0.027298 0.17269 0.14878 
п -0.1487 -0.027886 0.019759 -0.16111 -0.12533 -0.14743 -0.068768 0.022741 0.58643 0.51611 0.61887 -0.44147 -0.14333 0.42991 0.27738 -0.90809 0.12374 -0.7795 -0.33789 0.17281 -0.059739 0.063516 -0.4174 -0.28766 -0.26877 -0.029636 0.067047 0.1652 0.081037 0.14196 0.20541 0.11906 -0.26566 0.66619 -0.26099 -0.093221 -0.11825 0.2247 -0.66725 -0.36592 0.12156 -0.21163 -0.36214 0.22082 0.5542 -0.061856 -0.43656 -0.38209 0.0010213 0.4743 0.54987 0.33875 -0.40595 -0.2148 0.44291 -0.2447 -0.28246 -0.062899 0.54421 -0.47816 -0.11048 -0.032566 -0.66487 -0.60828 0.31047 0.085659 0.45477 0.41994 0.18535 0.19877 0.38282 0.42894 -0.24847 0.25662 -0.40595 -0.28517 -0.30309 0.76843 0.12651 0.15681 0.18964 -0.12309 0.29137 -0.17456 -0.23138 0.12626 -0.56311 0.27355 0.042721 0.41899 0.2659 0.1686 0.23267 0.099618 0.084226 -0.0358 -0.22071 -0.22352 -0.4622 -0.38808 -0.2227 -0.4229 0.16123 -0.72705 0.38801 0.39575 -0.04406 -0.16683 0.74901 -0.48285 0.57829 -0.34614 -0.17882 -0.141 -0.18866 0.27456 0.29409 0.046967 0.46328 0.59648 0.15482 0.82132 -0.52296 0.13549 0.19276 -0.21997 0.38533 -0.12442 0.7122 -0.1828 0.35275 -0.14759 0.13584 0.14121 -0.024413 0.027385 0.061674 0.23287 0.0058412 -0.32375 0.43971 -0.031424 0.070247 -0.69622 -0.067687 -0.38104 0.31437 -0.13258 0.26318 -0.35675 -0.062196 -0.29402 0.43249 -0.081945 -0.15268 0.26382 0.88089 0.20617 0.40984 0.62229 -0.098334 0.036623 -0.14123 -0.020211 0.063582 -0.29489 0.13034 -0.072762 0.40934 -0.11684 0.083363 0.26936 -0.22983 -0.17978 0.66801 -0.45608 -0.033181 0.25343 0.1592 0.21438 0.18341 -0.30856 -0.37113 0.43628 -0.034561 -0.48904 -0.14267 -0.25108 -0.25904 -0.58466 0.18599 -0.25386 0.057267 0.42809 -0.080643 -0.1719 -0.64205 0.53041 0.23738 -0.052623 0.47455 -0.13989 -0.35071 -0.36752 0.42975 -0.054786 0.051197 0.51045 -0.56111 -0.49226 0.2345 -0.052914 -0.1311 0.27997 -0.094215 -0.5979 0.013052 -0.54148 0.20466 0.15959 -0.41902 0.5308 0.16535 0.63889 -0.030948 -0.65564 0.45882 0.26615 -0.038357 0.28003 -0.96971 -0.22749 0.10567 -0.031754 0.41563 0.045933 0.5857 0.022636 -0.41446 -0.15224 -0.44764 -0.10693 -0.51743 0.051049 0.70172 -0.13163 -0.003815 0.18712 0.1736 0.10645 -0.37103 0.11625 -0.087893 -0.04721 0.20248 0.47097 0.12494 0.13172 -0.41906 0.077121 0.27092 -0.40258 0.49957 0.85228 -0.11007 -0.11213 -0.33086 0.29132 0.32556 0.26012 0.024671 -0.19569 0.2011 -0.46586 -0.37496 0.083039 0.37674 -0.44541 -0.13455 0.54369 -0.28724 0.13397 0.35927 0.55199 0.22897 0.44761 -0.22396 0.11855 0.37018 0.099428 0.40639 -0.56504 0.25213 0.49064 -0.087364 -0.023797 0.01947 -0.43055 -0.39061 -0.14529 
но 0.038706 0.1298 -0.11471 -0.2453 -0.031407 0.18798 -0.23076 -0.020985 0.10309 0.044646 0.1487 -0.083719 -0.11764 -0.097403 0.059055 0.091438 0.16782 -0.10853 0.070479 0.027858 0.18281 -0.034345 0.13294 0.17307 -0.089263 -0.10172 0.20624 0.14401 0.023193 0.051852 0.13282 0.017142 -0.13584 0.037562 -0.17396 -0.14821 0.0203 0.118 0.125 -0.20079 0.17456 -0.043029 -0.09198 0.071058 0.091069 -0.066985 -0.13691 -0.23465 -0.23698 -0.064851 0.1498 -0.030137 -0.16961 0.12011 -0.111 -0.2103 0.072039 -0.032247 0.032743 -0.0030643 0.093261 -0.063493 0.32168 -0.21764 0.119 0.25217 -0.049297 0.25965 -0.28564 -0.091008 0.0037931 -0.17612 -0.00073367 0.054779 0.17669 0.15434 0.047133 0.17545 0.13201 0.047115 0.14758 -0.43114 0.38565 0.10947 -0.0295 -0.27344 0.029221 -0.027217 -0.13567 0.042898 -0.10975 0.12993 -0.071519 0.21879 -0.060219 -0.26424 0.0064961 -0.18768 0.18702 -0.00044319 0.085809 -0.035059 0.15193 -0.12277 -0.020709 0.00018048 -0.0075172 -0.0013688 0.26786 -0.1781 -0.052171 -0.016573 -0.13692 -0.04753 -0.097289 0.0311 -0.068259 0.1821 0.037386 -0.069974 -0.05195 0.041784 -0.0503 0.037209 -0.22261 0.013575 0.15633 0.016427 0.23732 -0.25218 -0.092048 -0.24397 -0.15796 -0.37421 -0.24712 -0.078643 -0.25596 0.21701 0.19774 -0.14437 -0.058402 0.049118 -0.10517 -0.079597 0.064108 -0.023395 0.19192 0.10852 -0.23243 0.23468 0.11955 -0.13041 -0.1866 -0.099506 -0.25821 0.12937 -0.25975 0.16233 0.13362 -0.12779 0.075311 0.13433 0.0060636 0.017866 -0.048211 -0.277 -0.032781 -0.048887 -0.12061 0.043541 0.094744 -0.11497 -0.0075482 -0.16876 -0.015261 0.050503 -0.21652 0.16718 0.24525 0.062108 0.0078587 -0.13456 -0.20099 0.043382 -0.039089 0.010053 0.0034509 -0.30399 0.10163 0.09126 0.050867 0.050513 -0.024527 -0.12649 0.053008 0.067194 -0.074886 0.15874 0.040064 -0.26781 0.094311 0.03636 -0.047063 0.13131 -0.14164 -0.023475 0.049082 -0.029824 -0.13604 -0.020482 -0.014497 0.17957 -0.16442 0.13491 -0.063393 0.021057 0.0054512 -0.0080602 -0.16833 -0.13288 -0.0020815 -0.020193 -0.1379 0.086234 -0.17566 -0.11304 -0.19853 -0.02358 0.048759 -0.0066749 0.2068 -0.042703 -0.090142 0.12214 0.010457 0.13317 -0.0038487 -0.07481 -0.078514 0.24887 -0.084919 0.18405 -0.013925 -0.075001 0.363 0.12197 0.25657 0.032014 0.0094302 -0.091528 0.12958 -0.039209 -0.082051 -0.11618 0.085151 0.049815 0.099649 0.095556 -0.19793 -0.012549 0.16558 0.16333 0.25898 0.17749 -0.22812 -0.15608 0.2213 -0.075067 0.091123 0.1179 -0.15166 0.15348 0.11083 -0.27564 -0.19061 0.12583 0.0066927 -0.011947 0.29594 0.017589 -0.00079873 0.014473 -0.021722 0.093638 0.12421 -0.066184 0.2721 -0.16224 0.056978 0.10623 0.26389 0.12284 -0.0024476 0.056238 0.28842 -0.039588 0.035173 -0.18532 0.12292 0.099262 
била -0.12024 -0.064263 -0.15703 -0.062514 -0.28157 -0.038008 0.02403 -0.12328 -0.1428 0.14734 -0.18021 -0.011599 0.040209 -0.30373 0.069126 -0.053156 0.092283 -0.54407 0.13468 0.2244 -0.36251 0.028338 0.21278 -0.070238 -0.19438 -0.34437 0.22706 0.39018 0.16284 0.013521 0.097224 0.17348 -0.26114 -0.045486 0.21924 -0.18115 -0.030403 0.52249 -0.049206 -0.19313 0.37135 -0.24358 -0.090332 0.24149 0.016584 0.039879 -0.16349 -0.10831 -0.136 -0.072787 -0.3448 -0.35319 -0.28328 0.20724 -0.24558 -0.40496 -0.039717 -0.034069 -0.3434 -0.14798 -0.16714 0.14008 -0.22637 0.015926 0.041986 -0.1683 -0.4228 0.47679 -0.0088745 0.13971 0.34265 -0.38908 -0.078879 -0.28058 -0.34444 0.28482 -0.27599 0.44243 0.071449 0.2439 0.24663 -0.01712 0.23967 0.059917 0.091633 0.043461 -0.12211 -0.096232 0.077382 0.19532 -0.4009 -0.085798 0.12349 -0.21614 -0.14468 -0.10539 -0.29445 0.12033 -0.076569 -0.4056 0.45396 -0.060488 0.02034 0.18501 0.078339 0.0028824 -0.11346 0.088687 0.1443 -0.089581 0.3257 -0.020915 -0.11146 0.25631 0.10024 -0.078212 0.56872 0.28716 0.16723 -0.10148 0.040002 0.077224 -0.2045 0.3246 -0.25734 -0.2035 -0.064456 -0.12535 0.38414 -0.24978 -0.37064 0.50244 -0.28139 0.017789 0.025541 -0.3917 -0.013152 0.25499 0.25023 0.035072 0.32361 0.26934 0.3217 -0.20099 0.20337 -0.15255 0.072756 0.15086 -0.30644 -0.18402 -0.10233 0.20871 -0.056416 -0.46343 0.094948 -0.13646 0.20173 -0.047534 -0.039542 -0.052814 -0.12152 0.3561 -0.09407 0.04939 0.28032 -0.13667 -0.035847 -0.1888 0.16932 0.0067757 0.27755 -0.014884 -0.028212 -0.10107 -0.074676 -0.12065 -0.53593 -0.038696 0.17482 0.41501 -0.029258 -0.43813 0.063805 0.16713 -0.20044 0.25037 0.22512 0.38648 -0.080334 0.057092 0.23709 0.15991 0.066298 0.027495 -0.26482 -0.082704 -0.059399 -0.258 0.2829 0.01422 -0.011885 0.061532 -0.045133 -0.019281 -0.13296 -0.0622 0.12744 0.084494 0.22336 0.10255 -0.02402 0.1712 -0.099053 -0.45988 -0.27327 -0.2122 -0.093405 0.096778 0.054864 0.077095 -0.12974 0.23679 -0.19395 -0.12625 -0.74074 -0.30642 -0.044637 -0.50714 0.039302 -0.09344 -0.28995 0.17185 0.075927 0.040866 -0.17917 0.14641 0.20225 0.22972 -0.34016 0.49518 0.28885 0.12963 0.054584 -0.34618 0.091221 -0.1026 0.25259 0.15279 -0.36746 -0.0079085 0.27629 0.025486 0.19672 -0.21374 0.029988 -0.2416 0.1927 0.24331 -0.12061 0.37134 0.22746 -0.15925 0.53145 0.14707 -0.34323 0.34325 0.13198 -0.33733 0.14945 0.25865 0.10702 0.19328 0.24424 -0.52541 0.071163 0.32899 0.12317 0.26965 0.6136 -0.27232 -0.23626 0.2905 -0.14348 0.17751 0.055115 -0.038759 -0.18652 -0.00099319 0.30517 0.21052 0.53723 -0.041215 0.35972 0.12349 0.30213 0.084824 0.1274 -0.23303 0.016561 0.51466 
– 0.01289 -0.048714 0.099836 0.056856 -0.12502 -0.23305 -0.072665 -0.6691 -0.099657 0.20492 0.20681 -0.16501 -0.16804 0.041686 -0.16772 0.40707 0.0034537 -0.31819 0.18724 -0.02373 0.045163 0.25676 -0.28315 -0.17505 -0.2286 0.25895 0.24381 0.028841 -0.32613 -0.21328 -0.17138 -0.39988 -0.41995 0.0068672 0.11978 -0.030667 0.050429 -0.34019 -0.088712 -0.077473 -0.021479 -0.15216 0.42247 -0.36881 -0.24457 -0.11308 -0.015574 -0.24997 -0.33992 -0.019683 0.0091205 0.35302 -0.16367 -0.095636 0.027426 -0.24878 -0.013987 0.082098 0.199 0.15951 -0.22942 0.24106 -0.12601 0.16575 0.15007 0.050105 -0.18028 0.031172 -0.041709 -0.071311 -0.24909 -0.037808 0.44357 0.67327 -0.17217 -0.27328 0.43186 -0.044241 0.076179 0.080416 -0.018034 -0.070621 0.24606 0.13384 0.18804 0.20415 -0.23407 0.0059298 0.49514 0.27053 -0.16693 -0.40499 0.14408 -0.098905 -0.091495 0.31022 -0.24081 0.024012 0.26384 -0.16741 -0.08418 -0.11406 0.07893 0.09662 0.19163 0.23642 -0.29476 0.17827 0.0012547 -0.27573 -0.0056754 0.29465 0.072586 0.0075075 0.0057566 -0.024686 0.12691 0.20024 -0.058942 0.13742 0.29371 -0.011008 0.0022428 0.2614 -0.31851 -0.524 0.21431 0.083714 0.2168 -0.19078 0.027159 0.13582 -0.27053 -0.21561 -0.55171 -0.13685 -0.22857 -0.20976 0.3065 0.2766 0.33861 0.52123 0.19443 0.30481 0.50623 -0.24476 -0.23707 0.092246 0.18323 0.082606 -0.009209 -0.17395 0.085427 -0.095436 -0.1171 0.1764 -0.45832 0.0015721 0.040078 0.35809 0.066785 -0.39996 -0.057098 -0.024018 -0.12501 -0.25136 0.21924 0.05047 0.005883 -0.094943 0.17059 0.045315 -0.45502 -0.27529 -0.069982 0.0057838 -0.71525 0.23718 0.032287 -0.14979 -0.12042 -0.26845 -0.32546 -0.12442 -0.16344 -0.042257 0.10055 -0.20121 0.28542 0.26204 0.10582 -0.26832 -0.31511 0.25259 -0.22816 -0.0074337 -0.48736 -0.17728 -0.10361 -0.1762 -0.11373 0.20955 0.13745 -0.13687 0.030139 -0.22962 0.3548 -0.16131 -0.2601 0.020123 -0.75313 -0.11822 -0.26673 0.17192 -0.1845 -0.38571 0.14366 0.11106 0.079733 -0.18683 -0.14636 -0.015051 0.129 0.41172 -0.31397 -0.22017 0.039357 0.04919 -0.2244 0.23455 -0.55438 0.16951 0.31838 -0.01537 -0.32718 -0.013005 -0.053148 0.019305 -0.055933 0.23204 -0.17607 0.069836 -0.1344 -0.22095 0.08648 0.059088 0.51719 -0.26569 0.24494 0.090064 0.34726 0.29644 0.032257 -0.049576 0.067679 0.060828 0.12493 -0.015945 -0.041367 0.35358 -0.058635 -0.052354 0.05058 -0.026903 -0.043424 0.3268 0.004916 -0.11283 -0.1543 -0.15146 -0.01804 0.039275 0.11372 0.057517 -0.24609 0.54274 0.029605 -0.34169 0.10358 0.1539 -0.12868 0.032091 0.36818 0.19528 -0.049185 0.41575 0.024313 0.063709 0.42236 0.027581 0.27714 -0.041986 -0.018584 0.056269 0.099872 -0.23336 0.055739 -0.28047 -0.32674 0.095083 
македонија 0.23683 0.070527 0.26688 -0.38993 0.30765 -0.58353 -0.21404 0.1127 -0.20267 0.42849 0.33233 -0.022127 -0.37722 -0.12881 0.079349 0.031294 0.2631 -0.60572 0.25526 -0.57703 0.28184 -0.2311 0.13596 0.33152 0.094742 -0.56058 -0.20776 0.28387 0.12039 0.31292 0.25113 0.13716 -0.30998 -0.1172 -0.24562 -0.30473 0.10766 0.12089 0.19481 -0.18499 -0.054349 0.024557 -0.13767 0.11965 0.051809 -0.31207 0.056713 -0.2503 0.31364 0.16244 0.22453 -0.032378 0.18116 0.05144 0.10943 -0.076068 -0.14186 -0.33428 0.16461 0.016123 0.23606 0.012896 -0.14369 -0.21391 -0.10873 0.019521 0.046523 0.49197 -0.026001 -0.11466 0.045658 -0.24171 -0.44438 0.10497 0.050085 0.22407 -0.14656 0.046639 0.0086725 -0.15995 -0.13793 -0.0098911 0.20971 0.062206 0.21102 0.066137 -0.091545 0.070685 -0.061236 -0.11376 0.18604 0.13612 0.13032 -0.14985 -0.51927 0.070883 -0.061848 0.078844 -0.41017 0.04546 0.042024 -0.48879 -0.17823 -0.27727 0.074232 0.25674 -0.18463 -0.052306 0.11083 0.059947 -0.10008 -0.17494 -0.096293 0.29541 -0.018765 0.1462 -0.030824 -0.19228 0.14424 -0.060481 0.55018 -0.08699 -0.28554 0.24648 -0.15924 -0.48459 0.050101 0.033596 0.059828 -0.59173 0.042778 -0.24619 -0.39138 -0.36922 -0.066187 -0.49998 -0.24701 -0.20215 0.10848 -0.25064 -0.13398 -0.18037 0.087849 -0.28228 0.71117 0.29381 0.0072604 0.0060629 -0.24718 -0.16752 -0.36387 -0.092804 0.35314 0.041151 0.13951 0.15945 -0.019072 -0.097233 -0.059121 0.18045 -0.26825 0.23833 0.13407 0.29035 -0.083573 -0.22342 -0.38884 -0.2198 0.52191 0.34316 0.23687 -0.44466 -0.014246 -0.56865 -0.27232 -0.026484 0.36123 0.17103 -0.13933 0.21082 0.10214 -0.36631 0.077119 -0.13797 0.0032729 -0.27248 0.31123 -0.10319 -0.0089162 -0.17541 -0.37879 0.23517 -0.35787 0.16504 0.15261 -0.31623 0.0404 0.18075 0.024628 -0.17212 0.46365 0.069586 0.022911 -0.039827 -0.24952 -0.36351 0.54783 0.22233 -0.091792 0.13413 0.15947 0.30318 -0.16625 0.0073239 -0.11858 -0.42471 -0.29645 -0.049971 -0.07479 0.15153 -0.078185 0.1485 -0.058868 -0.035371 -0.25603 -0.32136 -0.038706 -0.18096 0.0049941 0.18176 0.056626 -0.25793 0.19066 0.12427 0.090377 -0.11097 0.01655 -0.016317 -0.069877 -0.096169 -0.35907 -0.046587 0.20671 -0.34838 0.081053 -0.13059 0.32396 -0.17547 0.24971 0.25475 0.38688 -0.52041 0.37368 0.25648 0.3702 -0.35649 0.53627 0.27283 -0.13597 0.15125 -0.066572 0.22601 -0.036781 -0.082845 0.11902 -0.15722 0.10876 0.35364 0.00444 -0.28202 0.22815 -0.10015 -0.20751 -0.23632 -0.21471 0.51753 0.55694 -0.23835 -0.13201 0.036801 0.42214 -0.17065 -0.22597 0.80577 0.038346 0.30309 -0.54163 0.071764 0.097944 0.15939 0.29567 -0.24767 -0.048434 0.0027791 -0.14802 -0.030629 0.068004 -0.016552 0.32466 0.47525 
додека 0.54933 0.44663 0.068805 -0.67181 -0.2563 0.21656 -0.38747 -0.2844 0.50227 0.15153 0.027272 -0.36819 -0.24855 -0.23047 -0.25664 -0.010595 0.19007 -0.14903 0.26991 0.13981 -0.094639 -0.15457 0.19576 0.042473 -0.37793 -0.047529 0.50906 0.41864 -0.26141 0.17846 0.1438 -0.2014 -0.019457 -0.15902 -0.17413 -0.13876 -0.049543 0.11607 0.019274 -0.25782 0.13593 0.69833 0.067686 -0.34428 0.026572 -0.36661 0.028428 -0.20229 -0.16504 0.38347 0.12208 -0.12355 0.013024 -0.10697 -0.11496 -0.11415 0.12195 0.1263 -0.076808 0.073382 0.19153 0.068975 -0.032861 -0.097233 0.5105 0.20341 0.13122 0.051044 -0.20864 0.67008 -0.37503 0.13839 0.11121 -0.0058636 0.25476 0.15235 -0.39233 0.22411 0.0098332 0.075048 0.010991 -0.088127 0.18558 0.23799 0.039286 0.026715 -0.1824 -0.037225 -0.21571 0.355 -0.23158 -0.3176 0.19285 0.31745 -0.15945 0.034974 -0.19854 -0.33907 0.20191 -0.065907 0.10915 -0.044521 0.00019314 -0.036521 0.030343 0.31031 -0.37754 -0.2667 0.61856 -0.020314 0.30974 -0.27942 0.4549 -0.19715 -0.16345 -0.097373 0.1128 -0.13138 -0.11847 -0.28996 0.18357 0.19661 -0.32601 0.21099 -0.15501 -0.098676 -0.099161 -0.27319 0.52856 -0.11546 -0.13857 0.11361 -0.51032 -0.57805 -0.12804 0.080504 -0.30301 -0.066387 0.062913 -0.35608 0.037758 0.17442 -0.0054844 -0.45339 0.038845 -0.44737 0.16437 0.17849 0.011687 0.17303 0.23557 0.4199 -0.24387 0.1247 -0.10444 0.011207 -0.16431 -0.0021605 0.19443 -0.10925 0.055235 0.17536 -0.21198 0.42347 -0.065649 -0.24231 -0.14715 0.1345 -0.022937 0.055846 0.085027 0.059933 -0.031076 -0.49386 0.14681 -0.1251 0.16158 -0.035003 0.44757 -0.0077231 0.044274 0.038267 -0.27303 0.19937 0.14112 0.10716 0.19529 -0.17377 -0.059434 -0.46645 -0.24736 -0.11039 -0.0071159 0.32077 0.1344 0.081092 -0.23839 0.31057 -0.12255 -0.20005 0.26566 -0.118 0.0099876 -0.1729 -0.21574 0.17881 -0.13943 -0.093652 -0.38398 0.26497 -0.30332 0.031171 -0.50033 -0.01333 0.014082 -0.18792 0.024933 -0.090769 0.22013 -0.006979 0.1905 -0.038734 0.049557 -0.14922 -0.18314 -0.22086 0.080679 0.15529 0.23576 -0.17486 0.37755 0.2483 -0.095251 -0.14528 -0.13123 0.0061342 0.32547 -0.26298 0.28888 0.18696 0.063445 -0.042258 0.12787 -0.033696 0.24355 -0.059827 0.17348 0.18416 -0.18572 0.091148 0.23778 -0.21143 0.080013 -0.03144 -0.21222 0.05609 0.18055 0.046895 -0.1105 0.029251 -0.1423 0.24278 -0.053177 0.38587 -0.29377 0.38473 -0.047532 0.00012524 -0.045104 0.32443 -0.33287 0.67865 -0.25393 -0.077857 -0.32046 0.43539 -0.051432 -0.33013 -0.03857 0.15685 -0.095662 -0.12171 0.078699 0.19206 0.043147 0.12194 0.082394 -0.040031 0.29004 0.13929 0.057949 0.28177 0.16019 0.31269 0.25461 -0.060178 0.45106 -0.079675 -0.051526 -0.12779 
кога 0.10172 0.20306 -0.10211 -0.09441 -0.058743 0.32533 -0.0040044 0.068211 0.16066 0.16819 0.15437 -0.10841 0.0014563 0.18076 -0.030436 -0.010264 0.37676 -0.27367 -0.074923 0.18413 0.11353 0.12839 0.19448 0.16435 -0.071083 -0.083066 -0.090522 0.20284 -0.0094462 -0.10904 0.15441 0.26605 -0.16874 0.22105 -0.30416 -0.1335 -0.26259 0.21886 -0.0096497 -0.36932 0.17163 0.24505 0.018781 -0.073862 0.20124 -0.21812 -0.13445 -0.55818 -0.1357 0.23919 0.24509 -0.039067 -0.15101 0.034427 0.24244 -0.18041 -0.034946 -0.13772 0.062288 -0.21228 0.19276 0.30819 -0.20273 -0.028238 0.0072003 0.1509 0.14329 0.37933 -0.44294 0.19944 0.0020608 -0.33677 0.048548 0.10055 -0.071301 0.1861 0.01556 0.11102 -0.11683 -0.11716 -0.069521 -0.187 0.23728 -0.1509 0.10283 -0.22004 -0.1126 0.13517 0.16455 0.22752 -0.1714 -0.033092 -0.16761 0.021507 -0.057409 -0.12334 0.15582 0.11148 0.068619 -0.011454 0.11369 -0.1549 -0.014958 -0.08212 -0.1729 0.35314 -0.41619 0.065044 0.22 -0.18773 -0.032945 -0.22076 0.052873 -0.04615 -0.0014974 -0.06859 0.18827 0.3752 0.20596 -0.17044 0.11643 0.18557 -0.12612 0.11296 -0.27655 0.14807 0.046217 -0.13577 0.24849 -0.25315 -0.19615 -0.15053 -0.35734 -0.30334 -0.028656 0.17667 -0.23889 0.34301 0.24795 -0.20985 0.075958 0.080697 -0.19545 -0.34874 -0.24295 -0.33096 -0.12225 0.17038 0.074569 0.27386 0.099038 -0.15063 0.0069532 -0.2227 -0.084697 0.16307 -0.255 -0.1106 0.16338 -0.0025491 0.050598 0.041636 0.031711 0.049511 -0.11115 -0.60336 0.0076587 -0.18916 0.049782 0.17546 0.2998 0.19924 -0.22742 0.16623 -0.029642 -0.10993 0.074627 -0.03049 0.33773 0.1791 -0.22786 -0.092505 -0.29579 0.33966 -0.10356 0.10617 0.04793 -0.078768 0.03185 -0.31163 -0.16927 -0.34635 -0.34177 0.10119 0.083892 0.065684 -0.091474 0.099435 -0.095153 -0.27076 0.36605 0.36656 0.033524 0.035991 -0.13529 0.1182 0.12747 -0.034418 -0.1805 -0.068515 0.040094 0.15463 -0.10704 -0.0033298 0.058647 0.17233 -0.093686 0.12343 0.097748 -0.34803 -0.35438 0.1317 -0.48729 0.19692 -0.17185 0.048927 0.11378 -0.091623 -0.081331 0.074046 0.081068 0.12424 -0.34371 0.1375 0.034818 -0.0095757 -0.084354 -0.24956 0.073925 0.23305 0.014965 0.069713 -0.13211 0.059742 0.48896 0.27347 0.28894 0.068097 -0.14883 -0.27731 0.07016 -0.10052 -0.00074376 -0.091868 -0.057939 0.023484 0.011872 0.11024 -0.12855 -0.20982 0.15588 0.16516 0.14637 0.24387 0.012421 0.10759 0.20525 0.13701 0.24535 0.48739 -0.03648 0.24671 0.11577 -0.22414 -0.11653 0.010495 0.28702 -0.27139 -0.14292 -0.1878 -0.21972 -0.16849 0.10416 -0.076627 0.086115 -0.13373 -0.09247 -0.10059 0.22875 0.030663 0.17335 -0.26239 0.15835 -0.1214 0.18753 0.014101 0.07614 -0.23662 0.11829 -0.10803 
страна -0.066067 0.24804 0.069173 -0.29018 -0.14883 0.23076 0.1373 0.15968 0.10828 -0.51462 -0.11514 -0.046764 0.20577 0.052515 0.06868 0.082773 0.17088 0.10128 0.08083 -0.099645 -0.18371 0.03265 0.10628 0.33609 -0.41176 -0.23176 -0.0046253 0.32285 0.069217 -0.24638 -0.22714 0.00099649 -0.1095 -0.053262 0.022701 -0.026255 -0.21761 0.3148 0.12819 -0.2096 -0.17208 0.14567 0.09277 0.095444 -0.0023315 -0.27819 0.17052 -0.28219 0.092943 0.29603 0.00060624 0.11964 -0.12131 0.30169 -0.29257 0.17539 -0.4224 0.027031 -0.20995 0.016465 -0.1496 0.33474 -0.34196 -0.10814 -0.32355 0.15058 -0.30583 -0.016612 -0.059112 -0.0040752 0.0054874 0.0085964 0.287 0.30217 -0.14497 0.18335 -0.22045 0.27712 -0.073738 -0.052413 0.060636 -0.28241 0.41753 -0.00084599 -0.29497 0.0076861 -0.32433 -0.038406 -0.057556 0.36013 -0.11257 0.12914 0.11368 -0.52629 -0.10504 0.19697 -0.15287 0.21761 0.039833 -0.21634 0.12778 -0.311 -0.034922 -0.50622 -0.27682 0.49517 -0.04768 -0.12033 0.22041 -0.13258 -0.26877 -0.22628 -0.037473 -0.37629 -0.28776 -0.59287 0.31784 0.41709 -0.19292 -0.12659 0.32186 -0.11318 -0.071421 0.094797 -0.13423 -0.18527 0.097196 0.13547 0.30292 -0.25396 -0.041447 -0.091281 -0.18052 -0.62389 0.047223 -0.27041 -0.18168 0.3803 0.3255 -0.0064564 0.051806 -0.06084 0.1901 0.082002 0.39856 -0.19014 0.14576 0.1613 -0.059725 0.10474 0.02473 0.15282 -0.27114 0.035617 -0.043124 -0.056221 -0.089471 -0.16273 0.156 -0.066793 0.22647 0.31688 0.038574 -0.23871 0.037781 0.34816 0.13177 0.047714 0.59415 0.071217 0.099122 0.24309 0.1321 -0.17858 0.23374 0.11508 -0.20913 0.088854 -0.006554 0.24613 -0.11239 -0.16014 -0.24155 0.032998 -0.31997 -0.048004 -0.19467 0.14892 -0.0028061 0.03922 0.067815 0.095072 0.34059 0.04403 0.15028 -0.1379 -0.096206 -0.39803 0.004247 -0.30948 -0.0089766 0.39377 0.053409 0.14548 -0.30764 0.071152 0.10173 0.36866 0.044768 0.0022047 -0.19817 0.44496 0.074122 0.064427 -0.23433 -0.032068 0.11727 0.079355 0.16501 0.11585 0.061988 0.03586 -0.39741 -0.13664 -0.20786 -0.25453 -0.17483 -0.02928 -0.20559 0.13844 -0.24104 -0.0042384 -0.10669 -0.042565 0.37081 0.12803 0.38449 0.20067 0.023657 0.38523 0.49908 -0.32951 0.10586 0.091776 0.34555 -0.14171 0.46496 0.1631 -0.26404 0.23834 -0.25874 0.075459 -0.1981 -0.033154 0.090555 -0.17769 0.16383 0.11748 -0.044264 0.18764 0.55829 0.23516 0.043682 0.24838 -0.37897 0.22575 0.18741 -0.25375 -0.014274 0.17198 0.11204 -0.081665 0.29151 -0.011528 0.084192 -0.088367 0.31931 0.023643 0.30259 -0.13709 0.34467 -0.042251 -0.12945 0.2794 0.046256 0.17217 -0.18647 -0.20242 0.26076 -0.089628 0.69479 0.28306 0.33638 -0.3809 0.21521 0.12821 0.14063 -0.47335 0.028301 0.19053 
биле -0.22626 0.13758 0.012213 -0.39787 -0.00094792 0.011467 0.092304 -0.13279 0.12555 -0.0015297 -0.017925 -0.16293 -0.080602 -0.088317 -0.065401 -0.025612 0.18846 -0.38873 0.25546 0.059158 -0.21615 -0.4362 0.056546 -0.02803 -0.30604 -0.39291 0.094533 0.12859 0.16235 -0.1237 -0.15757 -0.060249 -0.40879 -0.25308 0.17913 -0.34839 0.33151 0.027817 -0.15796 -0.36415 0.32723 -0.3501 -0.46551 -0.067302 0.10817 -0.0049735 -0.29258 -0.00029433 -0.38066 0.15743 -0.049221 -0.20687 -0.52224 -0.08377 -0.12082 -0.33129 0.027292 -0.23002 -0.27357 -0.33907 -0.13844 0.21266 0.11647 0.012819 3.2487e-05 -0.040527 -0.31108 0.32294 -0.32969 0.21689 0.029067 -0.26966 -0.16365 0.19196 0.037177 -0.026531 0.0084611 0.1953 -0.052172 0.12989 0.068195 -0.12298 0.38082 -0.4541 -0.10856 0.26929 0.061066 -0.20377 0.18827 0.041101 -0.20834 -0.096934 0.13887 0.20988 -0.068192 -0.14821 -0.194 0.1045 0.15726 -0.22075 0.15291 0.04104 -0.085382 -0.24769 -0.070334 0.030445 0.11683 -0.34258 0.092091 0.24253 -0.19549 -0.30882 -0.1228 0.015104 -0.0044441 -0.13449 0.23463 0.23918 0.28606 -0.29341 0.068373 -0.17017 0.38043 0.28146 -0.2219 -0.31917 0.32188 0.02786 0.49545 -0.14496 0.081774 -0.3397 -0.55018 -0.40111 -0.074898 -0.2515 0.039711 0.093275 0.10459 -0.03634 0.42507 0.20588 0.24346 -0.06344 0.44736 -0.082438 -0.027831 -0.066541 -0.31199 0.17493 -0.055382 -0.45699 -0.33457 -0.22927 0.063549 -0.32392 -0.13487 0.19948 -0.032189 0.1532 0.12916 0.20006 -0.084894 -0.18486 -0.03092 0.18242 0.11963 0.14952 0.0047853 0.13338 0.033545 -0.067241 0.076739 -0.19394 -0.087395 -0.18299 -0.12032 -0.012381 0.27991 0.33023 -0.33589 -0.3759 -0.024415 0.16567 0.10981 0.36907 -0.13376 -0.099453 0.0172 -0.060245 0.049924 0.37605 0.079579 0.029284 0.29808 -0.089046 0.29441 0.090027 0.11694 -0.30059 0.14636 -0.082278 0.060997 -0.46177 -0.095347 -0.070252 0.066812 0.089678 0.26484 0.20895 -0.015401 0.31267 -0.013416 -0.071541 -0.075865 0.13271 0.037067 -0.44059 0.30422 0.040914 0.28671 0.09511 -0.21824 -0.16969 -0.17357 -0.18882 -0.16185 0.17025 -0.0072272 -0.20664 0.023394 -0.054941 -0.099891 0.043596 -0.12765 0.50758 0.092314 0.30061 0.4558 -0.15182 0.082013 0.27248 -0.2195 -0.23643 0.17236 -0.011819 0.14045 0.2484 0.085471 0.14745 0.3207 -0.021896 0.11902 -0.091709 -0.063207 0.32453 0.19276 0.17349 0.18707 0.27974 0.081652 0.022522 0.19645 0.13861 -0.10614 0.27026 -0.066982 -0.34292 -0.18288 0.39497 0.27274 0.24268 0.40844 -0.1768 -0.024677 0.14267 0.17286 -0.11882 0.40609 -0.12832 -0.11028 0.16127 -0.13186 0.26702 0.52373 0.13175 -0.42341 0.18599 0.079648 0.015641 0.19647 0.018172 0.020469 -0.19456 0.27969 0.12006 0.30548 -0.24037 -0.18154 -0.00064123 
н 0.4153 0.049703 -0.024067 -0.36181 -0.085046 0.13257 -0.086904 0.36723 0.4924 0.50111 0.39601 -0.38805 -0.13049 0.73468 0.17912 -0.61391 0.18369 -0.40151 -0.04598 -0.034792 0.15734 0.36602 -0.23598 -0.40358 -0.14737 0.12414 0.089864 0.28764 -0.26425 0.20081 -0.00078144 0.085648 -0.1612 0.34533 -0.35349 -0.18244 0.34207 0.42703 -0.74814 -0.17724 -0.059449 -0.038477 -0.36038 0.066043 0.3667 -0.093216 -0.33917 -0.22941 -0.21652 0.70018 0.38296 0.37504 -0.44367 -0.16382 0.11028 -0.18587 -0.32759 -0.35288 0.40587 -0.24942 0.25455 0.037668 -0.49548 -0.70878 -0.015411 0.11869 0.25427 0.5955 0.16767 -0.086997 0.19001 0.45614 -0.148 0.46557 -0.46916 0.039219 -0.17579 0.68469 0.096641 0.14789 0.053177 -0.17586 0.3108 -0.31921 -0.13222 0.1028 -0.33125 0.18953 -0.021736 0.6272 0.13988 -0.16352 0.37733 0.24058 -0.11052 0.34213 -0.32933 0.17623 -0.425 -0.11115 -0.30354 -0.24383 0.020545 -0.17192 0.41535 0.47363 -0.28187 -0.3473 0.54124 -0.49039 0.52146 -0.69657 -0.41788 0.18161 -0.14739 0.18168 0.31081 0.30981 0.376 0.47318 0.014126 0.56507 -0.34788 0.16944 0.22047 -0.41112 -0.054567 -0.064346 0.64494 -0.26381 0.25211 -0.0046935 0.17767 0.16507 -0.31831 -0.029036 -0.33774 0.16918 0.058464 -0.48616 0.13086 0.0025195 -0.0076745 -0.39569 -0.1152 -0.11084 0.49716 -0.10939 0.32502 -0.18673 -0.093533 -0.24542 0.34579 0.18315 -0.024824 0.23065 0.1865 0.029931 -0.0027324 0.23383 -0.30482 -0.25148 -0.089073 -0.067603 0.1196 -0.23918 0.10351 0.089355 0.038718 -0.29672 0.38779 0.39514 -0.39122 -0.18849 0.39685 -0.18746 0.040708 0.11978 0.13217 0.25113 0.069225 -0.14306 -0.088906 0.5627 -0.031602 -0.48972 -0.28014 -0.24786 -0.012304 -0.6191 -0.28047 0.037864 -0.14528 0.20352 -0.088269 -0.24904 -0.57869 0.3208 0.12732 0.050948 0.85502 -0.27112 -0.44872 -0.36222 0.123 0.31878 0.13869 0.29346 -0.26654 -0.38577 0.057202 -0.014737 -0.29444 0.17665 -0.14148 -0.38218 -0.076644 -0.66474 0.14349 0.25541 -0.31974 0.514 -0.11773 0.44855 0.056378 -0.21097 -0.078036 0.096675 -0.057203 0.19688 -0.67302 -0.242 -0.066887 0.097207 0.18274 -0.015943 -0.034951 0.19481 -0.079811 -0.091512 -0.42663 0.064736 -0.18367 -0.19157 0.50069 0.049293 -0.024467 0.14552 0.013493 0.155 -0.083251 -0.042232 -0.090204 -0.018078 0.080133 0.14517 -0.071968 0.30705 0.013358 0.0099683 0.60254 -0.26441 0.3616 0.77098 -0.064709 -0.026932 -0.10515 0.18849 0.39676 0.3784 0.11609 -0.14853 0.28291 -0.48194 -0.24858 -0.092966 0.41833 -0.5364 0.14145 0.43076 -0.15029 0.2427 -0.035757 0.23957 0.29116 0.32679 -0.10246 0.20292 0.18655 0.085427 0.59951 -0.40345 0.31315 0.3206 0.094865 0.23079 0.096646 -0.10698 -0.31433 0.096098 
дел -0.23084 0.071914 0.029922 -0.33279 -0.24788 -0.045735 -0.22923 0.19839 0.18961 -0.22434 0.012012 -0.12867 0.30774 -0.13875 -0.29095 -0.10487 0.45983 -0.012562 -0.12015 0.2489 -0.25815 0.064455 -0.020101 -0.062196 -0.31928 -0.55437 0.055004 0.28171 0.19867 0.026587 -0.13027 0.32661 -0.32192 -0.052712 0.051192 -0.58525 0.1133 0.216 0.072894 -0.076491 -0.23797 -0.070137 -0.034108 -0.2808 0.081281 -0.017796 -0.095645 -0.097878 -0.077272 0.13616 -0.077673 -0.0048937 0.0032845 -0.21063 -0.15056 0.077431 -0.13665 0.044544 0.20873 0.19363 -0.094237 0.33661 -0.041027 -0.13802 0.1043 -0.18064 0.021737 0.26128 0.07005 -0.23244 0.32373 -0.029068 0.055949 0.022363 -0.2387 0.12465 -0.2655 0.27166 -0.081536 0.14546 -0.010613 -0.54931 0.38285 -0.31265 0.063325 -0.23322 0.10148 -0.13088 -0.16355 0.19767 -0.21229 0.1238 0.041991 0.2055 -0.16227 -0.32957 -0.095994 0.11409 -0.043613 -0.049979 0.39402 -0.16595 -0.16164 -0.021772 0.36515 0.45488 0.029867 0.12504 0.23301 0.027512 0.25774 -0.26171 0.1116 0.2015 -0.17179 -0.10427 0.23694 0.23921 0.14475 0.089705 -0.014789 -0.11514 -0.046551 0.10866 -0.32388 -0.37104 0.090131 0.18168 0.069794 0.07943 0.10561 -0.082206 -0.13388 -0.085394 -0.25461 -0.13471 0.17756 0.01647 0.053832 -0.28322 -0.10869 -0.098796 0.25334 0.17773 0.19839 -0.025337 0.11084 0.16156 -0.069861 0.11223 0.19363 0.0087134 -0.0013782 0.11226 -0.099798 -0.18035 -0.04772 0.18261 -0.063164 0.18226 0.4985 0.3238 0.04163 0.32568 0.044176 -0.19831 -0.26239 -0.051027 0.31722 0.40183 -0.41339 0.1979 0.13476 -0.016144 -0.25342 -0.0014237 0.014233 0.376 -0.098623 -0.12611 0.045164 0.0034245 -0.16781 0.26755 0.071405 0.045337 0.13344 0.12516 0.028594 -0.48477 -0.037074 0.19767 -0.11413 0.20151 0.066821 0.098913 0.013071 0.31926 -0.28795 -0.22933 -0.13406 0.086038 -0.19679 -0.0066743 0.25879 -0.077994 -0.28869 -0.062687 -0.16685 -0.035079 -0.23617 0.33925 -0.033085 -0.15753 0.02533 -0.16468 -0.052436 0.022883 -0.14031 0.055523 0.063471 -0.14615 -0.059154 -0.16293 -0.25152 -0.20983 -0.011415 -0.28226 -0.092668 0.10971 0.025471 -0.10624 -0.12459 0.26622 0.069454 0.16779 -0.24765 0.0067431 0.44703 0.2403 -0.48047 0.21367 -0.053531 -0.41422 0.11438 0.018596 0.28246 0.10762 -0.082782 -0.1712 -0.00057808 -0.12824 -0.072037 0.2039 -0.19719 -0.012389 0.11723 -0.084268 -0.2825 0.1299 0.031353 0.30656 -0.0076449 0.20368 -0.26284 -0.26255 0.074613 0.32736 -0.015203 0.43289 0.12405 -0.11945 0.11918 0.06952 0.067585 -0.14319 0.27592 -0.38197 0.13117 -0.13917 0.23054 -0.26789 -0.024048 0.74061 0.25063 -0.30775 -0.012797 -0.15416 -0.062219 0.21923 0.21897 -0.10707 0.14985 0.045279 0.20858 -0.08292 0.014092 -0.054028 -0.28745 -0.19013 
the 0.058315 0.15221 0.22549 0.24275 -0.54121 0.033466 -0.067593 -0.31434 0.3641 -0.28107 0.33594 -0.26828 0.11485 -0.15015 -0.12126 -0.37336 0.083119 0.018782 0.33043 -0.41684 0.070085 0.14126 0.034497 0.060667 0.19297 0.25528 0.070013 0.0089558 -0.064831 -0.12735 0.20877 -0.20246 -0.33455 -0.18752 0.09834 0.010594 0.32065 -0.28178 -0.42786 -0.49896 0.17634 -0.12006 0.19406 0.11508 0.053287 -0.43184 -0.31488 0.37777 -0.19469 0.21957 -0.16906 -0.026584 -0.55306 -0.05243 0.16415 -0.11735 -0.50326 0.49313 0.26545 -0.079274 -0.10594 -0.0097549 -0.18833 -0.1886 -0.16871 -0.37164 0.16538 0.19526 -0.19804 0.44967 0.089396 0.23256 0.47274 0.49205 -0.16519 0.30496 -0.18738 -0.41274 -0.20402 0.29066 -0.3572 0.20914 0.069456 -0.20885 -0.13114 0.4431 0.12708 -0.062766 0.22399 0.70511 -0.055239 -0.29929 0.16844 -0.062902 0.031213 -0.28902 -0.31383 0.13209 -0.067124 -0.20771 0.2331 -0.12284 0.038456 0.11676 0.14316 0.16011 -0.37919 0.21311 0.39341 -0.15406 -0.21461 -0.028146 0.38187 -0.18828 0.030594 -0.38649 0.25961 0.45349 -0.54795 0.27717 0.12458 -0.024368 -0.21945 0.062368 -0.20981 -0.31969 -0.45826 -0.15928 0.16587 -0.2186 0.33253 0.23076 -0.16266 -0.57677 -0.24557 -0.47339 -0.44279 0.0045724 -0.19651 -0.17107 -0.21066 -0.0084607 -0.36468 -0.054805 0.77353 -0.20061 0.11088 -0.048298 0.056122 -0.16468 0.057979 -0.098128 -0.34471 0.15809 -0.37947 0.095412 -0.16223 -0.112 -0.22326 0.47987 -0.044829 -0.21451 -0.18845 -0.12735 0.28996 -0.083039 -0.1959 -0.10631 0.3658 -0.28237 0.0084763 0.12361 -0.23674 -0.2963 -0.21404 0.37761 -0.19303 0.47262 0.27613 -0.32091 0.035729 -0.18037 -0.16285 0.34738 0.13543 -0.18742 0.4806 0.15516 -0.16603 -0.062293 0.50183 -0.079312 -0.57783 -0.28964 0.18771 0.26629 0.32608 0.41307 -0.45969 0.058997 -0.069965 0.13801 -0.037571 -0.37701 -0.18915 0.64063 0.33382 -0.33188 -0.080228 0.39783 -0.19998 -0.073459 -0.25651 -0.16493 -0.090509 -0.15271 -0.18111 -0.32305 -0.63417 0.31993 -0.10555 0.2151 -0.2788 0.34487 -0.34163 -0.098874 0.62877 0.3197 -0.46181 0.39343 0.17705 0.90752 -0.49617 0.57205 -0.14396 -0.099801 0.35959 0.26451 -0.16784 0.046282 -0.11293 0.37387 -0.32881 -0.28016 -0.21789 0.069838 0.098897 0.044019 -0.34749 -0.21964 0.24831 0.0014664 0.030104 0.36948 0.13634 -0.095113 0.19461 0.099077 -0.40529 0.35757 -0.032239 0.37077 0.18132 0.57917 0.092987 -0.15954 0.28932 0.027874 -0.1905 0.17229 0.078678 0.0072252 -0.08513 -0.2599 0.1792 0.064135 -0.31621 -0.33634 0.28835 -0.2234 0.29622 0.17529 -0.10049 0.13574 -0.10072 -0.13078 -0.15374 0.23488 0.25687 0.44417 0.23123 -0.23207 -0.23248 -0.39936 -0.069906 0.3265 -0.1584 0.15979 -0.31149 0.31203 
околу -0.040921 0.19765 -0.066501 -0.24961 0.14044 -0.071003 0.099918 -0.085444 -0.32268 0.17982 0.11589 -0.27099 -0.024175 0.12733 -0.27308 -0.083414 0.065452 -0.022513 0.16146 0.4172 0.30322 -0.036257 0.25775 -0.21879 -0.10498 -0.44963 0.51341 0.33813 -0.044477 -0.41094 0.26469 -0.069001 -0.071034 0.1406 -0.18957 -0.31963 0.099615 0.4049 -0.50144 -0.17931 0.27114 -0.23217 0.024441 -0.1291 0.050992 0.22005 0.16684 -0.12517 -0.15918 0.099759 -0.060745 0.09983 -0.4778 0.35348 -0.27223 -0.24989 -0.3308 0.1111 0.29568 -0.080412 0.40081 0.11924 0.066737 -0.084327 0.34959 -0.39245 -0.31269 0.030045 0.088345 0.24405 -0.046569 0.54391 0.17309 0.29526 -0.017369 0.12538 0.17133 0.30616 -0.27498 0.37568 0.012557 -0.40014 0.3498 -0.22249 0.087113 -0.54704 -0.047889 -0.19275 0.035271 0.44087 0.17765 0.34279 0.1535 -0.21938 -0.18717 -0.094952 -0.079425 0.20133 0.17141 0.12664 0.1481 -0.13181 0.097212 -0.12624 0.17083 0.097293 -0.45337 -0.088304 0.24033 0.39077 0.043309 -0.0071289 -0.050173 -0.12287 -0.18498 -0.16121 -0.048418 0.35631 -0.16245 0.062909 0.11355 0.20277 -0.1756 0.037191 -0.40606 -0.13061 0.035047 0.10767 0.22054 -0.047771 -0.057288 0.079933 -0.23825 -0.38501 0.041212 -0.064215 -0.18111 0.050946 -0.15166 -0.32543 0.030134 0.23513 0.18479 -0.34142 0.24041 0.064076 -0.10612 0.063172 -0.010649 -0.092678 -0.32022 -0.25913 -0.062972 -0.34372 -0.080969 -0.43039 -0.23454 0.26941 0.070654 0.2756 0.049611 -0.0011357 -0.081277 0.34041 0.058997 -0.26196 0.11717 0.14853 0.074975 0.1434 0.28106 -0.087987 0.092847 0.062412 0.14389 -0.0931 -0.0083707 -0.052305 0.26611 -0.12831 0.13987 -0.33082 -0.52305 0.37917 0.25884 -0.3177 0.32062 -0.14413 0.019023 -0.18404 -0.28857 0.078975 -0.33136 -0.027042 -0.18539 -0.37256 -0.2801 0.48871 0.094621 -0.3633 -0.45845 0.066494 0.06277 -0.20084 0.23697 -0.027454 -0.24796 0.13871 -0.13297 -0.15941 0.1766 -0.037118 -0.66196 -0.11835 -0.065985 0.056774 -0.12153 -0.063217 0.1583 -0.36583 0.21299 0.24745 0.077224 -0.17514 -0.23205 -0.17898 0.050186 -0.18152 0.055894 -0.16314 -0.24311 -0.069527 -0.26645 0.096295 0.081264 0.24663 0.28735 0.080084 0.017966 0.28148 -0.020474 0.35004 -0.00033352 -0.44146 0.42532 0.019859 0.13011 0.012724 0.04797 -0.026168 0.12492 0.0077643 0.144 -0.23559 0.43157 -0.31797 0.37636 -0.18449 0.56705 -0.046407 0.014877 0.13759 -0.22502 0.45976 -0.32116 0.16705 -0.29301 -0.23335 -0.17786 0.37949 -0.081384 -0.052786 0.067341 -0.22198 -0.025485 -0.21798 0.1513 -0.16843 -0.27762 0.29666 -0.1266 0.091324 -0.11414 0.18722 -0.037112 0.056712 -0.09393 -0.32954 0.30413 0.32333 0.34714 -0.27345 0.29411 0.45133 0.5225 0.060934 0.4044 -0.07214 -0.13954 -0.25527 
време 0.13401 0.05846 0.012045 -0.18518 0.014421 -0.29872 -0.149 -0.034149 0.20381 0.256 -0.20971 -0.20565 0.15429 0.020309 0.03518 0.17285 0.49072 -0.14643 -0.17434 -0.156 0.068244 -0.057889 0.03794 0.20437 -0.20469 -0.32874 0.10359 0.28117 -0.029182 -0.079753 0.11202 0.072264 -0.37476 0.0076656 -0.18901 -0.016649 0.19464 0.10937 0.21368 -0.082271 0.28502 -0.0595 0.12814 0.057105 0.19332 -0.1294 -0.089852 -0.026855 -0.19426 0.34199 0.48352 0.0040809 -0.24364 0.13693 -0.29023 0.17611 0.30543 0.13606 -0.0052675 -0.16985 -0.12103 0.21988 -0.15762 -0.13606 -0.29676 0.019536 -0.36928 0.39013 -0.017643 0.046307 -0.031254 -0.20462 0.18885 0.28633 -0.042581 -0.1471 0.092239 0.41982 -0.10464 0.071582 -0.18123 -0.19494 0.051495 0.24684 -0.12995 -0.1557 -0.17681 0.050804 -0.25254 0.09654 -0.32979 0.1816 -0.37194 0.091613 0.22075 -0.10593 0.14709 -0.0283 0.34769 -0.26549 0.27656 -0.093304 -0.099485 0.082512 -0.2383 0.093247 0.016776 -0.18029 -0.12354 -0.15125 0.0026982 -0.22157 0.024258 -0.22083 -0.018173 -0.3049 -0.0095585 0.13221 0.13647 -0.017952 0.17687 -0.092796 -0.17304 0.018652 -0.098839 -0.23992 -0.28012 0.31566 0.14996 -0.30601 -0.23175 -0.078485 -0.012214 -0.25533 -0.18756 -0.11946 -0.040695 0.12331 0.27865 -0.27534 0.073088 -0.023256 0.3818 0.11636 0.18729 -0.032468 0.15188 0.13322 -0.18005 -0.34611 -0.17362 -0.093759 0.089289 -0.15306 0.10225 0.010956 -0.15667 0.080454 0.05236 0.15759 -0.022249 -0.0083248 0.13309 0.074995 0.096933 -0.66003 -0.40484 0.038305 -0.020942 0.18418 0.6509 0.0652 0.073384 -0.039941 0.13521 -0.10258 -0.07472 0.26338 0.3201 0.27506 -0.0065517 -0.58049 -0.30851 0.085878 0.028711 0.095098 -0.13621 -0.14355 0.060248 0.15699 0.037761 -0.14756 -0.048976 0.09315 -0.055385 -0.18059 -0.24322 0.00918 -0.20308 -0.20294 0.2571 -0.064964 0.29293 0.20285 0.0022806 0.12094 -0.046807 -0.38344 -0.23962 0.17735 0.058905 -0.057155 0.042705 -0.060471 0.08896 0.30352 0.062518 0.12432 0.065219 0.047112 -0.24385 0.26831 0.05962 -0.03373 -0.032025 0.24016 -0.10882 0.28962 0.23341 -0.33413 0.27908 -0.010289 0.010859 0.04996 -0.09965 -0.038132 -0.063478 0.09468 -0.085066 0.1939 -0.32186 0.041105 -0.25331 -0.13181 0.24656 0.11554 -0.025326 -0.23301 0.10486 -0.034606 -0.23726 -0.084912 -0.18258 -0.31192 0.014158 -0.22218 0.23731 0.17554 -0.055351 0.22102 0.12117 0.08567 0.30423 0.40259 -0.082932 -0.064247 -0.097263 0.22403 0.071302 0.34335 0.11037 0.12921 0.062201 -0.077161 -0.15829 0.015224 0.22737 -0.424 0.045534 -0.10859 0.21724 -0.15137 -0.076743 0.17663 0.032958 0.029691 0.060002 0.12897 -0.11119 0.062202 0.38528 -0.052561 -0.12873 0.070962 0.29902 -0.046994 0.16496 -0.2945 0.025563 -0.020073 
век -0.05842 0.26594 0.054672 -0.51675 -0.060315 0.13491 0.25059 0.052116 0.21205 0.35871 -0.13167 -0.068995 -0.12367 0.15753 -0.049832 -0.064089 0.003555 -0.3296 0.20015 -0.14257 0.1645 0.087598 -0.18305 -0.12605 -0.25181 0.070784 0.058178 -0.070298 -0.10758 0.0011629 0.3385 0.50727 -0.28382 0.1111 -0.30955 -0.45536 0.313 0.52544 0.09336 0.047354 0.35911 -0.31959 -0.1151 0.1264 0.03271 -0.22066 -0.27811 -0.0014976 0.14919 0.29313 -0.0058792 0.092895 0.13539 -0.17603 0.25859 -0.34303 -0.07326 -0.1758 0.026815 -0.27367 0.4888 0.30605 -0.26705 -0.056509 0.40435 -0.13248 -0.15354 0.23741 -0.26902 0.045687 0.2513 -0.09569 0.090976 0.078713 -0.054867 0.2118 -0.1216 0.35627 -0.083531 0.54141 0.26752 -0.42897 0.49782 0.23845 0.17489 -0.088067 -0.65299 0.13255 -0.025059 0.3079 -0.064227 0.098323 0.05879 0.012947 -0.14406 -0.076042 -0.15987 -0.11845 -0.36813 -0.25979 0.2556 -0.26004 -0.26711 -0.077214 0.23994 -0.038146 0.14957 -0.37939 0.12078 0.23094 -0.1115 -0.11217 0.12902 -0.43517 -0.19394 -0.19071 0.68329 0.1664 0.012097 0.29558 -0.10338 -0.22318 -0.17513 0.11547 0.29558 0.14488 -0.23249 0.052273 -0.27322 -0.48724 0.55505 -0.063368 0.022222 -0.28745 0.076839 -0.058094 0.10891 0.16245 0.0071055 0.44374 0.045757 0.21595 0.29584 -0.11925 0.36088 -0.50777 0.02689 -0.031991 0.13299 -0.30133 -0.28414 -0.23113 -0.52047 0.35813 0.38775 -0.064061 -0.18474 0.19188 0.51687 0.29501 0.21393 -0.034163 0.1288 0.10305 0.19111 -0.38112 -5.252e-05 -0.034051 0.19782 -0.17485 0.22423 -0.10961 -0.24041 -0.060051 0.035632 0.16602 -0.21207 0.4684 0.43456 -0.14307 0.027512 -0.46293 0.098696 0.45751 0.19793 -0.096504 0.018536 -0.035081 0.25158 -0.0068226 -0.35437 -0.22708 0.046486 -0.035764 -0.034664 -0.38418 -0.29805 -0.29338 -0.089361 -0.24442 0.13161 0.093866 -0.18658 0.21222 0.26211 0.32245 0.16158 -0.28961 -0.26094 -0.062 -0.21357 0.32772 -0.05952 -0.046879 0.26882 0.24629 -0.16215 -0.2593 0.20021 0.0099209 -0.50484 0.27555 0.20607 0.041296 -0.41539 0.13707 -0.30447 -0.12583 -0.025087 -0.24785 0.24351 -0.28358 -0.2912 0.11438 -0.14673 0.22287 -0.069707 -0.16734 -0.099367 -0.046574 -0.35939 0.32584 -0.32143 -0.095817 0.38702 -0.044582 0.44864 0.052642 0.034926 0.012375 -0.095012 -0.31912 0.18496 -0.081128 0.32807 -0.058512 -0.075444 -0.11834 -0.062653 0.38311 0.1815 -0.062085 0.60988 0.2721 -0.37254 0.31985 0.0046372 -0.015876 0.23863 0.26697 0.07199 -0.17009 0.40048 -0.011708 -0.5203 -0.27885 -0.10687 -0.20835 0.26339 -0.39897 0.23731 0.066442 -0.065961 0.04232 0.2476 0.044861 -0.48803 -0.048256 0.33026 0.12093 0.65724 -0.28626 0.081923 0.28652 -0.28612 0.12128 0.34414 0.53396 -0.33889 0.20717 
of 0.11989 -0.10675 0.59121 0.34385 -0.52046 -0.0060053 0.1486 -0.26884 0.25835 -0.24248 0.26094 -0.25286 0.31383 -0.16729 0.0024385 -0.46557 0.1693 -0.23135 0.29948 -0.31587 -0.059035 0.27715 0.079682 -0.21113 0.31349 0.38165 0.37406 0.12129 0.059979 -0.26709 0.3505 -0.14621 -0.47282 -0.36763 0.092464 -0.15054 0.11349 -0.46861 -0.33114 -0.47397 0.12247 -0.13245 0.032138 0.22227 -0.013695 -0.52942 -0.29576 0.15047 -0.26987 -0.076846 0.0032307 0.1778 -0.14666 -0.2503 0.07717 -0.50503 -0.51811 0.43729 0.52866 -0.3605 -0.39878 -0.062349 -0.28843 -0.49647 0.13954 -0.12591 -0.0050243 -0.08626 0.061914 0.23014 0.3279 -0.026782 0.22201 0.40497 0.030959 0.24125 0.2271 -0.45786 -0.11105 0.33524 -0.19839 0.22353 -0.1156 -0.055769 0.045923 0.24141 0.2676 -0.38647 0.50703 0.42703 -0.69753 -0.27438 0.50508 -0.14088 0.00098357 -0.29765 -0.16745 -0.12285 0.16761 -0.5739 -0.032299 -0.19959 0.14348 -0.3454 0.0075886 0.25425 -0.69775 0.095083 0.32141 0.25831 0.003186 -0.28049 0.061753 -0.014144 0.11975 0.027517 0.51728 0.11816 -0.64961 0.17475 -0.018827 -0.18871 -0.20226 0.2045 -0.05279 -0.35061 -0.29157 -0.12828 0.29019 -0.29909 0.016832 -0.073224 -0.14229 -0.80601 -0.34588 -0.25959 -0.51882 -0.083905 -0.1144 -0.33674 -0.13749 -0.0024002 -0.17331 -0.14083 0.64774 -0.057692 -0.12672 -0.25199 -0.12012 -0.22212 0.17249 -0.040696 -0.015453 0.33563 -0.6351 -0.018345 -0.34508 -0.011438 -0.47615 0.41245 -0.025983 -0.27596 -0.15383 -0.030941 0.55084 -0.078032 -0.27279 -0.41768 0.30286 -0.15225 0.061498 0.2846 -0.27614 -0.46105 -0.34524 0.26044 -0.41428 0.52939 0.33961 -0.23511 -0.019762 -0.40465 -0.059933 0.26691 -0.022132 -0.17778 0.46453 0.11674 -0.38774 0.018091 -0.010348 -0.23233 -0.46607 -0.53126 0.37503 0.37842 -0.15372 0.13227 -0.57834 0.035271 0.34028 0.10244 -0.063356 -0.70481 0.015548 0.47376 0.46722 -0.38467 -0.47916 0.16282 -0.14327 -0.19616 -0.084013 -0.097885 -0.21256 -0.28475 -0.38895 -0.55783 -0.52738 0.31352 -0.15866 0.34289 -0.018033 0.53114 0.09565 -0.30323 0.60583 0.55065 -0.61114 0.23156 -0.085988 1.1541 -0.37587 0.31839 -0.051416 0.087153 0.34846 -0.033091 -0.23469 0.20518 -0.26259 0.26388 -0.034147 -0.38449 -0.28192 0.063202 0.069556 0.20258 0.0083649 -0.36853 -0.15212 0.23559 -0.52583 0.11405 0.0028518 0.31 -0.050709 0.036497 -0.65027 0.6404 0.11461 0.50134 0.34287 0.58923 0.17457 -0.3729 0.19851 -0.19344 -0.30977 -0.12277 0.12365 -0.084274 0.15492 -0.023331 0.33123 0.10075 0.028582 -0.29365 0.50875 0.12436 0.47539 0.18857 -0.3045 0.51745 -0.2456 -0.054291 0.0051418 0.18735 0.12899 0.37869 0.23729 -0.039818 0.18193 0.019881 0.0039737 0.44915 0.098791 0.36277 -0.38946 0.22974 
}} -0.28397 0.43074 -0.2759 -0.57604 -0.46053 -0.32974 0.26504 -0.31461 -0.17034 0.056353 0.15979 -0.37091 0.12778 0.030063 0.33498 -0.36876 0.062254 -0.77099 -0.31563 0.05303 0.42413 -0.1262 -1.1111 -0.36811 -0.17834 -0.42533 0.11663 0.030309 0.19324 0.21354 0.28317 -0.61779 0.11233 -0.11552 -0.31882 -0.36199 0.1548 -0.50951 -0.26529 -0.20089 0.38014 -0.54218 -0.30934 -0.37631 0.36757 -0.064065 -0.71752 -0.007037 -0.17076 0.095671 0.36074 -0.24523 -0.3992 -0.15016 0.05618 -0.095079 -0.91545 0.27375 0.046903 0.55477 -0.32087 0.39159 0.14138 -0.55903 0.35181 0.25849 0.41203 -0.26038 0.072396 0.16611 0.38267 -0.37381 -0.23165 0.44611 -0.35655 0.54006 0.31042 -0.25515 -0.10839 -0.31505 0.12244 -0.26436 -0.25243 -0.35943 -0.061938 0.20261 -0.78125 -0.20524 -0.37034 1.0914 -0.39002 0.096668 1.0155 0.10149 -0.59903 -0.072806 -0.15783 -0.44844 0.38055 -0.1057 0.38394 0.28282 0.11429 0.24115 -0.16446 -0.009476 0.13712 -0.41126 0.62793 0.031867 0.12673 1.3396 0.067211 0.12235 -0.42037 0.97861 0.92979 -0.61857 -0.6384 0.38788 0.33326 0.4313 -0.12575 -0.26933 -0.64019 -0.7152 -0.16396 0.054207 0.35203 -0.88801 0.098891 0.71446 -0.35408 -1.2381 -0.58315 -0.09675 -0.78343 0.016123 0.25923 -0.44589 -0.22305 0.0024397 -0.24912 -0.052592 0.52584 0.1692 -0.8131 -0.2307 0.10639 0.093795 -0.62913 0.059119 0.099919 -0.18657 -1.0323 0.26637 0.20411 -0.51084 0.023375 0.43678 -0.24382 0.47518 0.28788 -0.29379 -0.23396 -0.4959 0.33508 -0.61496 0.05346 -0.17272 0.23941 0.62924 -0.36122 -0.24332 0.26815 0.38092 -0.49286 0.12982 0.24558 0.011811 -0.070983 -0.36659 -0.12318 0.58799 0.13075 -0.35716 0.23924 -0.044874 -0.43364 0.010746 0.93995 -0.33684 0.095892 -0.49158 -0.59359 -0.08284 -0.12132 0.43576 0.28425 0.36846 0.13449 -0.00099778 0.030942 0.0039798 -0.13546 0.25541 -0.16799 0.047083 -0.35507 -1.0055 0.55694 -0.08144 -0.41579 -0.58587 0.28977 -0.18219 0.16963 -0.60554 0.48545 0.78893 0.23351 0.080523 -0.36545 0.75885 -0.54913 0.14639 0.74158 -0.43412 0.31883 0.45759 -0.66938 -0.062676 -0.4412 -0.87933 0.38124 -0.0014458 0.66518 -0.15063 0.23875 0.40381 -0.20145 -0.16841 -0.56457 0.13946 -0.78611 -0.035581 0.42713 -0.077077 0.35316 -0.028772 0.14965 0.32546 -0.3437 -0.16158 -0.66381 -0.02405 -0.054281 -0.11 -0.76586 0.40792 -0.35754 0.3111 0.044324 0.70199 0.029474 0.052779 -0.10345 0.18454 -0.38692 -0.25887 0.0088964 0.093711 0.23203 0.12521 -0.21037 0.46239 -0.17232 -0.95924 -0.16505 0.40968 0.11279 0.61381 -0.66598 0.063069 0.49863 -0.20039 0.015606 0.39053 0.54303 0.67523 -0.43868 -0.52833 0.9404 -0.3653 -0.55028 0.71829 0.16336 0.7943 -0.27305 1.4849 
под 0.073164 0.4411 0.0030288 -0.26343 -0.17242 0.062107 -0.33762 -0.31104 0.3056 0.056586 0.094807 -0.44567 -0.056836 0.052501 -0.013652 0.14761 -0.12061 -0.15424 0.15051 -0.28371 0.14756 -0.20967 -0.074154 0.29875 0.21558 -0.38701 0.25645 0.12504 -0.090093 -0.12328 -0.19088 0.30742 -0.032484 0.23594 -0.16397 -0.24476 0.12787 0.1947 0.35524 -0.14831 -0.20229 -0.44002 -0.18129 0.16954 0.031521 -0.20279 -0.010467 -0.37959 0.040273 0.24755 -0.19889 -0.24566 0.060527 0.3486 0.21163 -0.063499 -0.12189 -0.012966 -0.21063 -0.024316 0.44587 0.091996 -0.52792 0.070465 0.63479 0.19628 0.27044 0.40334 -0.32694 0.37804 0.36162 0.38991 0.46921 0.58774 0.20029 -0.12767 0.25839 0.16529 0.42002 -0.10504 -0.2338 -0.29339 0.13848 -0.13891 -0.202 0.41142 0.0051815 -0.1095 -0.23506 0.25273 -0.357 0.49871 -0.15184 0.31815 -0.16111 0.089944 -0.14178 0.023079 0.018092 -0.44392 -0.39682 -0.041988 0.46521 -0.59077 0.18436 0.44164 -0.29154 -0.084026 0.15144 0.22497 -0.00055923 -0.065076 0.29312 0.15055 -0.14195 -0.042414 0.30938 -0.26251 -0.21524 -0.0036816 0.07391 0.26132 -0.39925 -0.097504 -0.10678 -0.41148 0.10863 0.053843 0.56805 -0.53564 0.16387 -0.3138 -0.47912 -0.034849 -0.015712 -0.12206 -0.12449 -0.168 -0.052251 -0.60083 -0.1136 0.50473 0.48366 -0.5998 0.33919 -0.043877 0.3582 0.24612 0.10396 -0.11918 -0.26208 -0.34112 0.17406 -0.17526 0.0052533 -0.035112 -0.26503 0.017079 0.054382 0.2749 0.13271 0.4504 -0.067771 0.011217 0.068911 -0.39374 -0.048969 0.13657 0.25876 -0.11518 0.034378 0.41313 0.091588 0.19332 -0.043857 -0.074204 -0.32782 0.071393 -0.027962 0.65207 0.12776 0.0069783 -0.21148 0.3472 0.20165 0.062121 0.2762 0.11574 0.2005 -0.12644 -0.15409 0.084649 0.092491 -0.23029 0.09994 0.17099 0.19113 -0.0037944 0.16656 -0.2324 0.072315 -0.045569 -0.087585 -0.069349 -0.16467 0.46467 0.28794 -0.28437 -0.27674 -0.027348 -0.34779 -0.071069 -0.22895 -0.31278 -0.31012 -0.11705 -0.065177 0.11746 0.084625 0.3876 -0.014236 -0.19869 0.062905 -0.56234 -0.05662 0.35007 0.054236 0.017044 -0.38572 -0.28014 -0.20913 0.17253 -0.033908 -0.19472 0.14948 0.0368 -0.094043 -0.18073 -0.27319 0.20986 -0.12809 -0.022542 -0.27448 -0.081791 -0.049214 -0.10775 0.62189 0.057206 -0.24607 0.026222 0.35192 0.16543 -0.16816 0.030421 0.011323 -0.20795 0.04151 0.37446 -0.12004 0.17923 0.14829 0.22409 -0.53405 0.15851 -0.081553 -0.038501 -0.076443 -0.0015419 0.25018 0.25823 -0.12595 -0.10769 0.039109 -0.29004 0.087509 -0.010097 -0.024039 0.33674 -0.072191 0.03467 -0.025286 -0.29196 -0.16118 0.33183 0.25224 0.28375 -0.2057 -0.52626 0.25232 0.17855 -0.03217 0.42773 0.29563 -0.14783 -0.034695 -0.28097 0.16654 -0.19272 0.13957 -0.064899 
ќе -0.014442 0.061827 -0.23314 -0.58617 0.088515 0.00052077 -0.46331 0.082792 0.11601 0.11079 0.15573 -0.023963 -0.22336 -0.059492 -0.14451 0.13768 0.098373 -0.080127 0.0078245 -0.13939 -0.13477 0.22289 0.44464 -0.041316 0.28309 -0.17381 -0.057462 0.2003 -0.037056 0.082261 0.064452 0.25289 -0.41654 0.16426 0.17962 0.12349 -0.082033 0.14976 0.22011 -0.2078 -0.10353 -0.1085 -0.2266 -0.29381 0.19493 0.022375 -0.36469 -0.10761 -0.13545 0.10941 0.26019 -0.020355 -0.15125 0.27154 0.21951 -0.048846 0.14281 -0.058132 0.081225 -0.014911 0.0088615 -0.059698 -0.02896 -0.18963 -0.11393 -0.031503 -0.16693 0.3599 -0.13881 0.033243 0.074998 -0.18363 0.16302 0.19285 0.15913 0.23172 0.11725 -0.051477 0.056336 -0.037567 -0.024698 -0.035781 -0.073649 -0.20301 -0.1628 -0.23285 0.051114 -0.14665 -0.25581 0.10968 -0.23482 0.19002 -0.088082 -0.04051 -0.13369 -0.0012595 -0.18831 -0.19084 0.089211 -0.29338 0.10902 -0.17573 0.20385 -0.19017 0.073312 0.20669 -0.44402 -0.072927 0.07094 -0.27855 0.13369 -0.0012093 0.042944 -0.21487 -0.19968 0.049824 0.15163 0.43133 -0.16094 0.013692 0.18778 0.044266 0.053239 0.011856 -0.32103 0.025211 0.15973 -0.088497 0.37186 -0.25197 0.06597 0.33164 -0.27846 -0.22546 -0.19141 -0.1128 -0.16284 0.040291 0.37164 -0.19316 0.035576 0.12301 -0.4519 -0.1138 -0.23699 -0.090533 -0.21677 -0.04632 -0.34954 0.32714 -0.26118 -0.021214 -0.11275 0.11525 -0.086125 0.15276 -0.18107 0.29013 -0.079565 0.10176 0.32546 0.48494 -0.18875 0.096361 0.19186 -0.061581 -0.10363 -0.060668 -0.1203 0.40883 0.069343 -0.21901 -0.14893 -0.42022 0.11602 0.086774 -0.24282 0.16245 0.35497 0.11714 -0.086646 -0.28984 -0.2807 0.27263 -0.24336 -0.030623 0.061866 -0.14806 -0.15146 -0.1505 0.25008 -0.12992 -0.33203 0.14117 0.21314 -0.12925 0.082954 0.036966 -0.096996 0.14105 0.2374 0.29207 -0.059361 -0.0098281 -0.071046 -0.064002 -0.16155 -0.07991 0.076705 0.26454 -0.07049 -0.12242 -0.060945 -0.09595 -0.07748 -0.016958 0.22539 0.098433 -0.02562 -0.31906 -0.084432 -0.27627 -0.18916 0.27572 -0.026904 -0.12848 -0.062359 -0.32777 -0.16793 -0.15973 0.083593 0.15619 -0.2379 -0.193 0.042487 0.0005011 0.10311 -0.12317 -0.14842 0.15787 -0.43586 0.35529 0.014459 0.047626 0.099453 0.080388 0.37358 0.21881 0.066251 -0.06635 -0.1254 -0.12319 -0.10423 -0.27108 0.20833 0.083379 0.13883 -0.039008 0.11629 -0.30956 0.035009 0.086166 0.15683 0.041759 -0.29131 0.095899 -0.0022181 0.28382 0.10653 -0.084959 0.058475 -0.070061 0.22384 -0.19305 0.1314 0.18141 -0.1342 0.24273 0.078757 -0.12227 -0.074029 0.037927 -0.064584 0.33909 0.17182 0.1246 -0.16159 0.1897 -0.08948 0.10134 -0.26886 -0.18528 -0.34069 -0.0089743 0.19676 0.15065 0.28492 -0.10043 0.36293 0.085619 
може 0.024658 0.14769 -0.32969 -0.50311 -0.099111 -0.13466 -0.34187 0.020948 0.19295 0.00014642 0.088493 -0.037175 -0.17852 0.29287 -0.32985 0.13864 0.27915 -0.33521 -0.30053 -0.49182 0.0015941 0.14948 0.043918 -0.17514 0.07566 0.1232 -0.033672 0.28987 0.068263 -0.22837 0.087068 0.094637 -0.21468 -0.013143 0.20343 -0.10313 0.13801 0.2115 0.14098 0.072795 -0.12402 0.016587 -0.15885 -0.032496 -0.036225 0.2111 -0.19664 -0.3024 -0.097939 0.047146 0.088539 -0.20496 0.045724 0.31585 -0.13844 -0.068579 0.24827 0.19821 0.10926 -0.13967 0.038075 -0.35454 -0.013538 -0.42392 0.1423 0.25298 -0.20132 0.32904 0.027955 -0.03706 -0.16738 0.039083 0.14978 0.12237 -0.11306 0.18813 -0.15913 0.10896 0.087365 0.070395 0.11681 -0.23427 -0.059395 -0.12205 -0.049449 -0.43026 -0.025666 -0.18754 -0.19613 -0.10702 -0.28248 0.25395 -0.25161 -0.30202 -0.063014 0.088887 -0.14733 -0.12677 -0.038188 -0.070067 0.030473 -0.0556 0.28597 -0.15332 -0.078273 0.31745 -0.3577 0.053674 -0.068724 -0.27494 -0.014033 0.29065 -0.11109 -0.19332 -0.48593 0.1031 0.29838 0.29342 -0.33198 0.11818 -0.04405 -0.022403 0.087986 0.04111 -0.11631 -0.02142 0.13641 -0.04001 0.25401 -0.25027 -0.084696 0.26206 -0.16416 -0.23914 -0.18155 -0.23441 -0.52592 0.010292 0.27406 -0.090723 -0.082978 -0.11939 -0.13422 -0.069102 -0.11235 0.21977 0.0026924 0.046125 -0.28415 0.19137 -0.2155 0.18863 -0.26345 -0.043221 -0.023879 -0.17985 -0.13256 0.17054 0.0088712 -0.052415 0.1323 0.13493 0.009924 -0.11713 0.13802 0.11048 0.02207 -0.039419 0.11948 0.22402 0.07207 -0.2731 0.11168 -0.10461 0.21503 0.16826 -0.25603 0.3102 0.22591 0.025847 -0.025673 -0.20634 -0.14237 0.25432 -0.15873 -0.074438 0.003012 -0.54002 0.032042 -0.20841 0.087423 -0.079043 0.008044 0.032334 0.094071 -0.078277 0.047322 0.012166 -0.10422 -0.084335 0.26664 0.2069 0.18863 -0.057296 0.16319 0.13408 0.097836 -0.057381 0.0098762 0.50572 -0.035121 -0.24479 -0.16174 0.1502 -0.13763 -0.20243 0.0066979 -0.15226 -0.095933 -0.10712 0.2183 -0.0083305 -0.25983 0.082387 -0.0048253 -0.13069 -0.089269 -0.10474 0.024851 -0.17166 0.069501 -0.070861 -0.15043 -0.026578 -0.075618 0.24358 -0.023218 -0.28887 0.062582 0.056948 -0.30314 0.39577 -0.12615 -0.14719 0.17971 0.10725 0.26393 0.13531 -0.12174 -0.085066 0.023529 -0.04457 0.024815 -0.064525 0.032539 0.077162 -0.068477 -0.066787 -0.22413 -0.45639 0.035771 0.063079 0.062969 0.21382 -0.29064 0.021779 0.0076088 0.37626 -0.064471 0.062322 -0.020351 -0.0071885 -0.089582 -0.28672 0.12556 0.020588 0.11205 0.16054 0.2345 -0.19248 0.2935 -0.050472 0.2813 0.30658 0.15336 0.1817 -0.0072523 -0.054492 -0.1281 -0.042372 0.0063513 -0.040017 0.10065 -0.10489 0.038456 0.36849 0.07296 -0.061669 0.34047 0.48355 
неговата 0.039473 0.19659 -0.32047 -0.23505 -0.25082 0.020574 0.039194 0.018626 0.279 -0.015489 -0.16796 -0.13735 -0.31665 0.14089 0.27751 -0.26049 -0.075427 -0.23401 -0.033322 -0.53386 -0.10113 -0.2536 0.194 0.31595 -0.0070073 -0.32513 0.43426 0.53714 0.051744 0.028027 0.00025274 -0.041181 -0.24596 -0.083427 0.14506 0.021489 -0.012621 0.22581 0.23073 0.19182 0.35296 0.194 -0.22107 0.05042 -0.082527 -0.33578 -0.31713 0.014555 -0.07282 0.11839 -0.0015316 -0.48541 0.095551 0.17345 0.081158 -0.0044754 0.024318 0.24982 0.29312 0.11617 0.18457 0.14782 -0.098916 -0.21617 0.053414 -0.035582 0.12598 -0.011464 0.20987 0.20272 0.38491 -0.11763 0.11789 -0.18966 -0.25066 -0.30329 0.18506 0.14897 0.15947 -0.3563 0.074957 -0.10984 0.409 0.29478 0.17762 -0.2095 0.099279 -0.23549 0.2971 0.15647 -0.2713 -0.055337 -0.093301 0.10218 -0.38582 -0.10501 0.31717 -0.092913 -0.079406 -0.52847 0.30844 -0.13316 -0.019763 0.1132 0.21905 0.25793 -0.31128 0.43661 0.0069652 -0.16807 0.055028 0.29717 0.051826 -0.21796 -0.019872 -0.020166 -0.029998 0.17035 0.11579 0.46541 -0.017654 -0.11686 0.0034279 0.098697 -0.055615 -0.28549 0.15575 0.18719 0.41714 0.0095446 0.22163 -0.079597 -0.7093 -0.28906 0.33222 0.020171 -0.064408 0.011643 0.22645 -0.13007 0.21943 0.21576 -0.14337 -0.01345 0.21127 -0.11489 -0.12306 0.41095 -0.12893 0.02642 0.034685 0.057688 -0.29287 0.013074 -0.15997 0.066373 -0.30395 -0.22243 -0.085812 0.05526 0.0091637 0.37156 0.33142 0.053849 0.19782 -0.57483 0.1344 0.0071379 -0.24713 -0.49912 0.045792 -0.54032 -0.065186 -0.0039869 0.18825 -0.10424 -0.44425 -0.13865 0.090322 0.28384 0.13255 0.047542 -0.2727 0.26307 0.22322 0.2112 -0.16679 -0.21363 0.026595 -0.26364 0.30702 -0.044204 -0.011933 -0.049147 -0.23069 0.14534 -0.12408 0.0037022 -0.11741 0.067716 -0.11408 0.0584 -0.082359 -0.40992 -0.44364 0.17944 0.22736 0.14707 -0.087006 0.12365 0.084579 -0.1259 -0.12875 0.084497 -0.1287 0.20013 -0.29545 -0.37184 -0.18578 0.31817 -0.17789 -0.17427 -0.045529 -0.25935 -0.65717 -0.014061 -0.050556 0.26922 0.19888 0.16226 -0.14506 0.052869 0.068092 -0.023565 0.012451 -0.10149 0.01012 0.032141 0.30951 0.37084 -0.020283 -0.091522 -0.18613 0.14163 0.32803 -0.061857 0.54008 -0.14696 -0.24442 0.095617 -0.20788 0.0061033 0.043351 -0.0031626 0.44164 -0.015245 0.15263 -0.32103 0.077167 0.15129 -0.054647 -0.14722 0.52055 0.19178 -0.30314 0.20938 0.47087 0.30125 0.36086 0.00096359 0.13551 0.19072 -0.0067291 -0.19923 0.019047 -0.012571 -0.034012 -0.39867 0.28264 0.18124 0.3473 0.3954 -0.21293 0.65369 -0.17394 0.22503 0.22932 0.091521 0.49028 0.0055532 0.24078 -0.074037 -0.029626 0.37088 0.35414 0.10516 0.14325 -0.19172 -0.0011633 -0.053127 
еден 0.1893 -0.17843 -0.26713 -0.15654 -0.097785 -0.080961 -0.10633 0.11114 0.14931 0.27571 0.11568 -0.47449 -0.25728 -0.026938 0.068705 -0.064222 0.22033 -0.1728 -0.072628 -0.059358 0.21401 -0.15609 -0.09478 0.053678 -0.092917 -0.28435 -0.22985 0.13358 -0.096919 -0.015654 0.16615 0.36644 -0.15693 0.15432 0.019651 0.01693 -0.090914 0.15664 -0.12008 -0.25779 -0.13265 0.068454 0.0044392 -0.0055459 0.18865 0.064617 -0.10899 -0.60035 -0.23523 -0.31272 0.30844 -0.3682 -0.034938 -0.30858 0.15964 -0.22126 -0.085971 0.22023 0.087768 0.088635 0.11093 0.39863 -0.057154 -0.0086469 -0.020221 -0.032791 -0.12116 0.20836 -0.10481 0.04379 -0.13811 -0.17361 0.15971 0.31303 0.22613 -0.21694 -0.030287 0.1875 0.23041 0.012595 0.38323 -0.33731 -0.10602 -0.031656 -0.42238 -0.22449 -0.076487 0.27316 -0.16917 0.42622 -0.19277 -0.077219 -0.37543 -0.28378 -0.094227 -0.23018 -0.3527 -0.01063 -0.1939 0.18093 -0.13331 -0.078062 -0.13589 -0.058277 -0.1505 0.26375 -0.20647 0.21724 -0.17719 0.09302 -0.055076 -0.038125 0.088946 -0.13854 -0.38468 -0.080612 0.043579 0.44414 -0.079394 -0.023328 0.0095701 -0.030507 0.076998 -0.010998 0.10728 -0.2646 0.11121 -0.012168 0.47615 -0.17398 -0.19202 0.29374 -0.51444 -0.28459 -0.085176 -0.10354 0.032339 -0.43631 0.25544 0.19925 0.055581 0.20341 0.13215 -0.083126 0.38503 0.22516 0.037308 0.034038 -0.14414 -0.056658 0.12082 -0.061155 -0.24343 -0.101 -0.10891 0.044304 -0.053672 0.25198 -0.078204 0.031278 0.13965 0.30659 0.040358 -0.13433 0.04965 -0.14417 0.18431 0.013743 0.026468 -0.08106 -0.059922 0.14102 -0.05627 -0.16792 -0.058978 -0.12086 -0.14812 0.36594 0.25924 -0.14004 0.28631 -0.12501 -0.18747 0.29547 0.017304 0.059082 -0.12156 -0.45812 0.13537 0.040791 -0.16145 0.325 0.14882 -0.23677 0.24244 -0.063285 -0.12721 0.046352 0.017128 -0.15379 -0.11022 0.25115 -0.127 -0.29125 -0.23858 -0.0010183 0.053642 0.17022 -0.050722 -0.021758 0.16583 0.24969 -0.0035351 0.03786 0.052157 0.11411 -0.22189 0.2882 -0.0086751 0.040313 -0.15708 -0.10751 -0.11882 0.054367 -0.15834 -0.10501 -0.046299 -0.10942 0.12094 -0.21644 0.016472 -0.15976 -0.093902 -0.34944 -0.048605 -0.17989 -0.11356 0.11647 -0.034173 0.10113 -0.16346 0.081991 -0.030815 -0.1165 -0.18938 0.24302 0.22133 0.087688 -0.11444 -0.046688 -0.2634 -0.03947 -0.079792 0.035974 0.28386 -0.033894 0.042358 -0.38339 -0.08847 -0.16735 0.23929 0.18741 0.21287 -0.020244 0.1629 -0.097697 0.049832 -0.23068 -0.12743 -0.0054157 -0.13372 0.10294 -0.047677 -0.23252 -0.038236 0.17619 0.36767 -0.48925 0.082003 -0.055923 0.23054 -0.19576 0.27389 0.28328 0.2418 -0.26475 0.056032 -0.24573 -0.10007 -0.057602 0.39296 -0.18556 -0.49392 -0.11241 0.087596 0.079045 0.080137 -0.17148 -0.21803 0.10238 
врски 0.22934 0.2345 0.25648 -0.5058 -0.048268 -0.016811 -0.59953 -0.52847 -0.078219 0.20456 0.25812 -0.2541 -0.085553 -0.18721 0.24957 0.011362 0.19879 -0.74257 0.53405 -0.0040706 0.27674 -0.20908 -0.1357 0.18109 0.13361 0.14914 -0.17374 0.30253 0.32431 -0.24636 -0.32185 -0.16624 0.15333 0.013454 0.10441 -0.11406 0.57245 0.19145 0.039655 -0.49312 0.43919 0.079329 -0.12757 -0.1366 0.20103 0.0897 -0.15235 -0.54474 -0.3124 0.198 0.5856 0.20144 -0.048359 0.46125 0.36863 -0.34576 -0.31709 -0.033616 0.10887 -0.056726 -0.53664 -0.14286 -0.17049 -0.065205 -0.082912 -0.29114 0.10137 0.03484 -0.13214 0.10481 -0.10885 0.08506 0.10661 0.3252 0.12221 0.057939 0.090747 0.53302 0.178 -0.12254 0.030552 -0.18863 0.32687 0.20805 -0.032361 -0.091541 -0.25317 0.43086 0.10275 -0.27985 -0.34856 -0.15681 0.23505 0.085994 -0.062546 -0.052103 0.091741 0.29748 0.21998 -0.55376 -0.073303 -0.29589 -0.023799 0.1042 -0.38309 0.19679 -0.15255 -0.080995 0.11376 0.28743 -0.028248 0.24312 -0.19361 -0.30062 -0.15422 0.0087051 -0.36889 0.37866 -0.062174 0.10883 -0.33996 -0.10657 0.38119 -0.44013 -0.23916 -0.4262 -0.21605 0.088168 0.02087 -0.24856 0.44788 0.10192 0.18402 -0.52344 0.23317 0.10888 -0.37579 -0.31717 -0.2032 -0.35439 -0.3109 0.050292 -0.58481 -0.58806 0.75963 -0.061712 -0.099868 0.41879 -0.73259 0.49877 0.11272 0.32552 -0.44999 -0.067128 -0.18291 0.023827 -0.45614 -0.1144 -0.052875 -0.22892 -0.34106 -0.32303 0.20402 -0.71177 -0.065736 -0.075123 -0.11368 0.17746 0.24344 0.18293 -0.18788 0.1899 -0.10722 -0.024842 0.11442 -0.052187 -0.014104 0.07382 0.26894 0.091694 0.22283 0.51001 0.014945 0.34668 -0.13702 -0.28971 -0.13951 -0.092027 0.074446 -0.13861 0.56574 -0.61739 -0.049 -0.0032314 -0.009272 0.31204 -0.082264 0.79653 -0.34872 0.071022 0.067383 -0.1349 0.44344 0.13375 0.39111 -0.71019 0.29908 0.047507 0.15331 -0.13186 0.0025871 0.39653 0.080133 -0.20831 -0.34863 -0.30989 -0.22484 -0.023464 0.15522 0.1109 -0.12797 0.1634 0.047817 0.17369 0.057867 -0.12793 0.026142 -0.34084 -0.11468 -0.080597 0.26388 0.3409 -0.61106 -0.073202 -0.24652 -0.1734 -0.35848 -0.13977 -0.3266 -0.13142 -0.70943 0.13571 -0.56223 -0.29549 -0.14275 -0.045315 0.38728 -0.18202 0.24513 -0.17311 0.34745 -0.021806 -0.54926 -0.037576 -0.50542 -0.025453 -0.10953 -0.051646 -0.1806 -0.18963 0.20701 0.12586 -0.1886 0.21635 -0.31437 0.084562 0.24356 -0.061322 0.15948 0.45772 -0.0079848 -0.12505 0.32777 0.22235 -0.64132 0.043465 -0.11806 -0.6973 0.2604 0.19053 0.34275 0.15247 0.042441 0.63583 0.25879 0.48774 -0.43362 0.24288 0.61504 0.10312 -0.087433 0.012052 -0.074567 -0.014572 0.14625 0.50506 0.12439 0.11052 0.054011 0.083608 
исто 0.11304 0.11687 0.04574 -0.12673 -0.29941 -0.15094 -0.22546 -0.00071236 0.096414 -0.18893 -0.044887 -0.072006 -0.19977 -0.065388 -0.10336 -0.033456 0.10494 -0.033591 0.045296 -0.26615 -0.0076798 -0.091114 -0.23047 0.11819 0.076828 -0.012979 -0.19717 0.1346 -0.0213 0.1024 -0.077848 -0.1208 -0.13564 -0.091571 -0.087698 -0.21406 0.056073 0.20637 0.057142 -0.20236 0.10098 -0.027671 0.093958 -0.08587 0.032281 0.019203 -0.20885 -0.26071 -0.21155 0.23294 0.28286 -0.071615 0.06636 0.27082 -0.31548 -0.068087 0.43613 -0.10013 0.22086 -0.20959 -0.0050337 -0.12988 0.11274 -0.12911 0.20817 0.14566 0.045276 0.26304 -0.14231 -0.045212 -0.065874 0.023735 -0.012898 0.022939 0.01784 -0.028489 -0.017293 0.39694 0.31642 0.2122 0.1152 -0.073808 0.075585 -0.18966 -0.15976 -0.31844 0.089449 -0.12634 0.031788 0.17666 -0.27582 0.11138 -0.086329 0.047269 -0.13751 -0.097533 -0.086095 0.016033 0.23107 0.07214 0.22779 -0.13138 -0.089602 0.065521 0.092052 0.12618 -0.14182 0.13229 0.11957 0.1431 -0.26281 -0.060989 -0.031715 -0.094648 -0.49113 0.16484 0.17371 0.19064 0.26457 0.14911 -0.055608 0.16937 0.014656 0.043922 -0.13486 0.012884 -0.10819 0.12665 0.26074 -0.38931 0.039027 -0.21871 -0.15996 -0.44074 0.12305 -0.085491 -0.20429 0.36456 0.31916 0.23159 -0.17031 0.30361 0.22172 0.21996 0.14087 0.047768 0.27698 -0.18855 -0.18742 -0.076915 0.12271 -0.15783 -0.035919 0.22655 -0.13118 -0.15568 -0.11757 0.27124 0.038879 0.037855 0.017956 0.14555 -0.0043554 -0.10103 0.26113 -0.11875 -0.398 0.23173 -0.11478 0.086046 -0.082371 -0.15438 -0.05554 -0.017633 0.11679 0.083029 -0.25114 0.19135 0.27446 0.074846 -0.21027 0.045037 -0.33196 0.31832 0.036612 0.14851 0.19252 -0.1446 0.045778 0.032988 0.013745 0.030515 0.063479 0.10967 0.087901 -0.0023999 0.044639 0.33833 0.091731 -0.12398 0.10401 0.14859 0.48913 0.14158 -0.1293 0.022857 0.22854 -0.035333 -0.33293 -0.099574 -0.32079 0.15269 -0.17258 0.121 -0.08738 -0.075493 -0.083375 0.13144 -0.48207 -0.11602 0.051226 -0.055398 0.037851 0.044851 0.072732 -0.041396 0.19845 -0.082236 0.015716 0.13989 -0.11489 0.15538 -0.10563 0.12587 -0.1155 0.14862 0.048331 -0.039128 -0.35093 0.20247 0.057971 0.01289 -0.11631 -0.19127 9.9079e-05 0.11696 0.10153 0.05029 0.20374 0.005914 -0.23933 0.091838 -0.049934 -0.15162 -0.16737 -0.18644 0.31797 -0.19145 -0.22504 -0.099122 0.059616 -0.010984 0.10581 0.17179 -0.038407 -0.016981 0.4717 0.024966 0.10508 0.32094 -0.13182 0.14313 0.061335 -0.35227 -0.075121 -0.030354 0.22418 -0.029107 0.20628 -0.038426 0.15022 0.17543 -0.035765 0.36447 0.32303 0.11084 0.15254 0.088271 0.072502 -0.029749 -0.077332 0.033243 0.26457 -0.11521 0.18471 -0.038321 -0.052647 0.070206 0.19621 -0.14126 
— 0.06091 0.58021 0.48123 0.16582 -0.44245 -0.60484 0.22087 -0.30263 -0.12976 0.22154 -0.051885 -0.34384 -0.16356 -0.069329 -0.18282 -0.0095134 -0.093698 -0.46494 -0.096407 0.00012349 0.015528 -0.047118 -0.22174 -0.15856 -0.09457 -0.16006 0.60068 0.18746 0.55865 -0.13548 0.18409 0.28528 0.051625 0.12741 -0.041354 -0.3494 -0.012897 0.029951 -0.041017 0.10585 -0.33526 0.1678 0.10952 0.24454 0.32674 0.27203 -0.20661 -0.2831 -0.52519 0.3466 0.25036 -0.035244 -0.34209 -0.18345 0.22603 -0.074027 0.016343 -0.020239 0.22621 -0.076982 -0.34524 0.40517 -0.19352 0.36499 0.18082 -0.25578 -0.012322 -0.25792 0.0041895 -0.83659 -0.50721 -0.13141 0.88998 0.09225 -0.37541 0.23563 0.16595 -0.064973 0.32221 0.42283 0.22822 0.054976 0.082342 0.041757 -0.168 0.26382 -0.27744 0.0095487 0.37931 -0.31943 -0.24812 0.040338 -0.11716 -0.44278 -0.20444 0.15582 -0.3707 -0.081891 0.064889 -0.054542 -0.27871 -0.076021 -0.12823 -0.11048 0.4644 0.55697 -0.24772 0.19549 0.032767 -0.06147 -0.15696 -0.1187 -0.2778 -0.10808 -0.10916 0.36253 0.28523 0.13736 -0.09857 -0.3077 0.70017 0.050275 -0.066953 -0.18704 0.2613 -0.49195 0.35995 0.23232 0.024135 -0.63115 0.30471 -0.12174 -0.22241 -0.28045 -0.47975 -0.50279 -0.35364 -0.077061 0.36953 -0.39961 -0.19081 0.27941 0.012288 0.13805 -0.11929 -0.30927 -0.55693 0.30863 -0.30671 0.28261 -0.13871 -0.091677 -0.005584 -0.1841 -0.010206 0.15093 0.26088 -0.2072 0.10885 0.68955 0.014063 -0.066383 0.14869 -0.082564 -0.094599 -0.62286 0.052374 0.091423 0.17568 -0.43745 -0.44707 0.24461 0.10587 0.18195 -0.40106 -0.026869 -0.48804 0.071295 0.52741 0.10046 0.17598 -0.3487 -0.040261 -0.037566 0.21256 -0.2696 0.11929 -0.41903 -0.033297 -0.25348 0.026912 -0.20377 -0.28396 0.038337 0.069269 -0.083395 -0.84162 -0.58686 0.48501 -0.10687 -0.27886 -0.13215 -0.025858 -0.1138 0.093481 -0.16126 0.13706 0.14371 -0.24287 -0.34726 -0.34809 -0.082015 -0.0055015 -0.40266 0.16505 -0.024383 -0.053275 -0.10038 0.035953 0.26198 0.041344 -0.2211 -0.2194 0.34688 -0.66689 0.022091 0.018776 -0.027152 0.41614 0.16077 -0.13005 0.32872 -0.11164 -0.29265 -0.2626 -0.1317 0.45719 0.24773 0.0391 -0.086945 -0.61324 0.091917 0.12715 -0.30027 -0.20798 0.11102 0.21634 -0.0019582 0.53881 -0.033044 -0.014067 -0.07107 0.053974 0.16917 -0.13783 -0.13588 -0.11321 0.06539 -0.06411 0.13888 0.084927 -0.015985 -0.063133 -0.34936 -0.14311 -0.18757 0.086363 0.06998 0.45216 -0.085039 -0.088593 0.1168 0.15735 0.26911 0.053535 0.21624 0.45103 -0.35036 0.54646 0.19088 0.028718 0.2715 0.031735 0.45183 0.24664 -0.089225 -0.1493 -0.12729 0.71466 0.19139 -0.0011985 -0.29584 0.10004 -0.079478 0.44444 -0.073286 0.56761 -0.36726 -0.13201 -0.015442 
#пренасочување -0.33051 0.30578 0.029956 -0.48574 -0.32371 -0.48701 0.086606 -0.21592 -0.22796 0.50276 -0.16962 -1.1008 -0.17604 -0.43261 -0.26175 -0.075065 -0.42138 -0.45787 0.17775 0.58272 0.39864 0.21211 -0.3534 0.12367 -0.46033 -0.098172 -0.014351 0.22894 0.81094 0.36956 0.47492 -0.21689 -0.40234 -0.21253 0.61824 0.32375 -0.33123 0.042994 0.47512 -0.099141 -0.43717 0.25251 0.076901 -0.071885 0.18606 -0.16601 -0.1315 0.074733 -0.77122 0.71509 0.27231 -0.30575 -0.34926 -0.24614 0.34307 0.088809 -0.44426 0.097392 0.041391 -0.93359 -0.24027 0.24435 -0.59324 -0.54942 0.23771 -0.27229 0.1273 0.29945 -0.68307 -0.59459 -0.34034 -0.023135 -0.09532 -0.12324 -0.20659 -0.85681 0.38711 -0.48004 0.7632 0.34963 -0.19501 -0.33073 0.050947 0.067232 -0.64424 -0.012309 -0.45303 -0.35897 0.58381 0.1269 -0.71555 0.86338 0.36435 -0.75317 -0.35062 -0.16249 -0.54415 -0.40065 -0.55669 -0.3184 -0.25049 -0.5876 0.76724 -0.088311 0.50838 -0.52063 0.09026 0.73045 -0.017098 0.65569 0.10108 0.11388 -0.26043 -0.2773 -0.10872 0.027449 -0.25862 0.14992 -0.064416 0.19654 0.71598 0.50866 -0.10949 -0.37575 0.67862 -0.91297 0.30154 0.60499 0.51511 -0.51399 0.11142 0.40011 0.58468 -0.74663 -1.0051 -0.48532 -0.74386 0.30921 0.0049429 -0.48634 -0.10225 -0.20721 0.39531 -0.83445 0.4939 -0.048118 0.20074 -0.00734 -0.31685 0.71079 0.2373 0.2512 -0.24054 -0.44502 -0.31531 0.2356 -0.025122 -0.29126 0.0040513 0.69069 0.20154 0.064506 0.51582 0.31965 -0.43331 -1.0391 0.16738 0.26947 0.14721 -0.153 -0.12513 0.025788 -0.14872 -0.44332 -0.37069 0.11011 -0.21416 0.12947 0.6046 -0.17889 -0.21779 -0.43593 0.20638 0.79632 0.087051 -0.108 0.052321 -0.38471 -0.001308 -0.74195 0.23228 0.76501 -0.073279 -0.052809 -0.009146 -0.68 -0.41179 -0.77801 0.67286 0.77462 0.25766 -0.25712 0.23733 -0.21468 0.1572 -0.032705 -0.21883 0.6622 -0.59447 0.076641 -0.30683 -0.50259 0.40883 -0.25894 -0.26527 -0.42655 0.073752 0.090752 0.42006 0.096132 0.018049 0.010036 0.4758 0.80052 -0.44393 -0.32888 -0.22323 0.40015 0.068063 0.30183 -0.071761 0.093043 0.30336 -0.50635 0.20173 -0.06312 0.56791 -0.67472 -0.076324 -0.099306 -0.22778 -0.72277 0.12458 0.12315 -0.27976 0.49299 0.062198 0.044977 0.067899 -0.28124 -0.0053492 0.040155 -0.37313 0.45055 -0.44348 0.20234 0.060943 0.29039 -0.60096 -0.16392 -0.070523 -0.25923 0.17591 -0.095616 -0.16091 0.020184 -0.34912 -0.3053 0.40929 -0.33465 -0.33772 -0.070523 0.42411 0.30273 -0.41723 -0.39267 0.32549 -0.21508 -0.18786 0.019065 0.40694 0.38041 0.029818 0.49025 0.39729 -0.39982 -0.2189 0.48296 0.90979 -0.24959 -0.18136 -0.26706 0.28778 0.35728 -0.058359 0.035755 0.56501 0.11763 0.03974 0.50868 
надворешни 0.19247 -0.20316 0.33744 -0.27382 -0.083634 0.038483 -0.3707 -0.47478 0.12901 -0.19511 -0.43284 0.020601 -0.10308 -0.18471 -0.053302 0.131 0.60157 -0.55069 -0.32229 -0.22498 0.060329 -0.1821 -0.20193 0.21256 0.12897 0.28102 -0.072414 0.30632 0.63881 -0.59223 -0.37696 -0.078894 -0.37971 -0.052868 -0.4495 -0.15809 0.29498 0.44518 -0.082501 -0.96535 0.64589 -0.029028 -0.24448 0.24684 -0.06736 0.43419 -0.28271 -0.48594 -0.3234 0.63609 0.63144 -0.20911 0.0066551 0.38491 0.28829 0.027515 -0.43018 0.19309 0.25348 0.12949 -0.07256 0.14646 -0.51575 -0.19079 0.11423 -0.2049 -0.090624 0.14119 -0.26672 -0.37236 0.054575 -0.15885 -0.12151 0.92757 0.15905 0.038518 -0.10997 0.23247 0.34763 -0.47747 0.174 -0.2699 0.22784 0.20482 -0.060536 -0.35876 -0.33439 0.13561 0.143 0.10415 -0.24689 -0.31131 -0.16873 0.020328 -0.1414 -0.28783 -0.0041208 0.37368 0.3116 -0.42585 -0.15529 0.060976 -0.038425 -0.10557 -0.28042 0.37321 -0.10729 -0.64187 0.61347 -0.15264 -0.027818 -0.025388 -0.079129 0.062089 -0.58758 -0.21055 -0.29457 0.3162 -0.86435 0.060418 0.017945 0.16008 -0.2777 -0.16746 -0.098193 -0.50942 -0.034338 -0.096372 0.12919 -0.38869 0.14312 0.12332 -0.32405 -0.64682 -0.22332 0.09196 -0.38056 0.2943 0.082768 -0.19802 -0.2321 0.17878 -0.43549 -0.63253 0.79524 -0.3357 -0.18709 0.65092 -0.13263 0.19009 0.13684 0.008586 -0.40941 -0.35436 -0.21532 0.058797 0.15254 -0.38475 -0.28872 0.4509 0.31324 -0.1016 -0.081617 -0.73043 -0.012516 -0.52011 -0.13903 0.27874 0.22088 -0.07272 -0.2421 0.12938 -0.36865 0.094543 -0.16811 0.34964 -0.030726 0.27348 0.16605 -0.24183 0.315 -0.28064 -0.003466 0.30649 0.24159 -0.3174 0.24023 -0.0098571 0.52801 -0.13263 0.195 -0.26329 0.42578 0.64149 -0.15199 -0.36326 0.27628 0.082153 0.067242 -0.11255 0.13761 0.41579 0.19761 -0.15003 0.12366 -0.27024 0.35434 -0.11918 0.079604 0.073439 0.20462 -0.10421 0.057467 0.25621 0.027258 -0.15152 -0.23242 0.024515 -0.21459 -0.17468 0.30868 -0.1699 0.05079 0.2347 0.80747 -0.16409 0.024485 -0.095078 -0.62263 0.20336 0.17606 0.26735 -0.5154 -0.0080904 -0.024572 0.11598 -0.26186 -0.50079 -0.57553 -0.12012 -0.19651 0.023079 -0.356 -0.23207 -0.38394 -0.5503 0.45823 0.36525 0.054903 -0.20469 0.55375 -0.50874 -0.46915 0.084785 -0.045155 -0.041545 0.26328 -0.20018 -0.13825 -0.2592 0.22496 -0.068435 -0.72552 0.20828 0.21033 -0.0032294 0.25341 -0.15162 0.21061 0.28741 0.85401 -0.60386 0.45243 -0.12795 -0.29022 0.021544 0.29309 -0.31244 0.54214 0.44039 0.37977 0.32476 -0.20974 -0.44652 0.26342 0.27165 -0.1183 -0.44701 0.10481 0.081774 -0.089226 -0.064347 0.41544 0.37381 0.42458 0.1115 0.040536 0.31447 -0.14828 0.28962 
повеќе 0.025348 -0.1886 -0.61369 -0.18931 -0.010311 0.091079 -0.1648 0.084145 0.072586 0.12683 -0.028439 0.018705 -0.1377 0.087287 0.0061518 0.33013 -0.084807 -0.25116 -0.097121 -0.18192 0.23442 -0.21295 -0.057541 -0.16896 0.041417 -0.50587 0.15604 0.23456 0.16195 0.13604 -0.25433 -0.22585 0.2251 0.020907 -0.15119 -0.23917 0.038233 0.37519 0.05158 0.021396 0.24771 -0.061935 0.016969 -0.041372 -0.047275 0.074001 -0.10251 -0.13018 -0.11398 0.42385 0.22551 -0.027819 -0.041758 -0.028556 0.079996 -0.20919 -0.020247 0.103 -0.067116 -0.06577 0.29842 0.19781 0.33717 -0.25984 0.043866 -0.018194 -0.32996 0.27673 -0.068138 -0.073193 -0.043083 0.072725 0.16925 0.28842 0.11711 0.16379 0.061264 0.409 0.011402 0.069 -0.20146 -0.53097 0.36887 0.05185 -0.20971 0.1324 0.26187 -0.11649 0.061178 0.31141 0.019474 -0.020832 0.1651 -0.056181 0.01073 0.16667 0.0083893 0.092076 -0.037293 -0.14 0.12685 -0.19106 -0.026883 -0.064151 0.036877 0.17903 0.010537 -0.018727 -0.086798 0.015764 0.018763 -0.042644 -0.067279 -0.09418 -0.25562 0.17856 0.12691 0.094992 0.0095155 0.10005 0.067462 0.027908 -0.17612 -0.13189 -0.089598 -0.30599 0.11914 0.06601 0.32798 -0.23414 -0.14471 0.10669 -0.50566 -0.48028 0.14303 -0.06647 -0.047315 -0.17827 -0.081788 -0.32913 -0.063109 0.32799 0.096682 0.20612 0.25615 -0.051774 -0.0046605 0.27862 -0.25561 0.13103 0.21644 0.031026 -0.4392 -0.072694 -0.18958 0.12534 -0.43224 0.17655 0.1201 -0.009974 -0.15808 0.19548 -0.23736 0.088311 -0.077714 0.15675 -0.15373 0.26519 -0.016288 -0.046842 0.11551 0.10611 0.34389 -0.2936 -0.074437 -0.060412 -0.082725 0.44026 0.38703 0.09081 0.036658 -0.22664 -0.33859 -0.073774 -0.27683 0.091932 0.25922 -0.26206 -0.16452 0.046502 -0.1211 -0.25733 0.01942 0.026292 0.075737 -0.042454 -0.25086 0.14379 -0.088446 -0.083122 -0.1161 0.18858 0.23482 -0.062865 -0.029512 -0.030914 0.1762 0.27573 -0.065801 0.043666 0.038312 -0.050736 -0.47364 -0.013014 -0.028879 -0.046467 -0.15689 0.0026963 0.071929 -0.035257 0.34213 0.42037 0.2705 0.10156 0.15224 -0.3679 0.22969 -0.19913 -0.1403 -0.32505 0.37251 0.16915 -0.030136 -0.05132 0.41976 0.028354 -0.058494 0.069168 -0.0042745 -0.24601 -0.17036 0.23262 -0.15991 -0.4095 0.42169 -0.030929 -0.040507 -0.01566 0.11964 0.040961 0.17961 -0.20045 -0.057786 0.055112 0.20578 -0.16151 0.051984 -0.11823 -0.15252 -0.1985 0.17725 0.1731 0.49086 0.21793 -0.215 -0.070241 0.45573 -0.011675 0.16321 0.10214 0.074069 0.14852 0.26371 -0.28877 0.02957 -0.05079 0.38388 -0.1343 0.086162 0.14561 -0.065934 -0.17065 0.14209 0.19524 0.13016 0.091017 -0.10014 0.044323 -0.039416 0.22284 -0.055469 0.038779 -0.33155 -0.086951 0.0028056 -0.027719 0.062332 0.023922 0.1369 0.074785 
па -0.0086605 0.22389 -0.45835 -0.41417 -0.062621 0.32223 0.179 0.15658 -0.026515 0.09625 0.23297 -0.31321 -0.0095415 -0.12876 0.31089 0.33194 0.16606 0.073951 0.16425 0.19241 0.43495 -0.10748 -0.050361 0.16218 -0.0083084 -0.35103 0.29378 0.18924 0.29055 0.20301 -0.19998 -0.012089 0.38561 0.049625 -0.038073 -0.034272 0.070773 0.22232 0.10441 -0.44829 0.047813 -0.14367 -0.18473 -0.16565 0.057517 0.048392 0.072574 -0.12857 0.25174 0.20441 0.04732 0.17111 0.099529 0.18136 0.11144 -0.1661 0.18229 0.17928 0.28412 -0.12038 0.04654 0.28573 0.19918 0.026899 0.088957 0.082209 -0.26174 0.10675 -0.12012 0.088232 -0.11804 -0.38962 0.14373 0.19422 0.15274 0.3905 -0.17723 0.23454 -0.25417 0.18618 0.1437 -0.36464 0.56435 -0.15557 -0.29593 0.28859 0.13079 -0.09509 0.051125 0.28593 0.16279 -0.077593 0.045875 -0.073834 -0.029015 0.16871 0.04496 0.036611 0.14399 -0.16416 0.21333 -0.11449 0.027788 -0.38519 0.029155 -0.32434 -0.061535 -0.09293 0.56422 -0.41231 0.29973 -0.25754 -0.067689 -0.0065488 -0.22434 0.028586 0.19162 0.23137 -0.24432 0.08563 0.028175 0.010378 -0.21298 -0.049144 -0.071647 -0.20776 0.31024 0.26576 0.26653 -0.31505 0.055915 0.22374 -0.16094 -0.63925 -0.19821 0.13227 -0.086259 0.12936 0.1184 -0.17469 0.32648 0.41073 0.064033 -0.13727 0.22923 -0.16653 0.13048 0.31935 -0.33841 0.3015 0.11726 -0.014533 -0.36918 -0.1329 -0.034958 0.33668 -0.31373 -0.087039 0.50112 -0.30776 -0.20566 0.38072 -0.099907 -0.19668 0.017632 -0.33514 -0.2559 0.046878 0.0024333 0.026147 0.17675 0.50292 0.44662 -0.47183 0.17012 -0.033345 -0.060623 -0.065444 0.4907 0.29708 0.17861 -0.33283 -0.26825 0.17631 -0.30385 0.2592 -0.025057 -0.17388 -0.20762 -0.053623 -0.038053 -0.19955 -0.20256 -0.27503 -0.18958 -0.0068589 -0.086043 0.029156 -0.28872 -0.28112 0.079877 0.0591 0.14805 0.50282 -0.33461 0.24506 0.2575 0.25616 0.25446 0.14384 0.051141 -0.17661 -0.25464 0.27551 -0.30444 0.035305 -0.49722 0.28838 -0.39833 0.19361 -0.12561 0.060993 -0.082408 0.15867 0.19673 -0.17143 0.23625 0.056532 -0.11357 -0.062337 -0.065058 0.088221 0.16475 0.3989 0.11891 -0.066362 -0.085309 0.13282 0.17367 -0.036237 0.15644 0.21438 -0.24527 -0.22923 0.28479 0.24037 0.24243 0.19277 0.011332 -0.072147 -0.2708 -0.40169 0.11622 0.14302 0.32078 0.17799 0.055349 0.14793 -0.51534 -0.29532 0.39307 0.18849 0.83908 0.68024 -0.28561 0.14356 -0.057378 0.1918 0.14229 -0.24987 -0.11445 -0.098378 0.24764 -0.47653 -0.056799 -0.099783 0.61187 -0.12399 0.17992 0.36274 0.2628 -0.10217 0.093394 0.38157 -0.051488 -0.3788 0.34004 -0.4049 0.16447 0.1643 0.28092 0.45786 0.41277 0.066699 0.062941 0.22612 0.24969 -0.22132 0.28778 0.57879 
податоци 0.26294 0.13644 -0.20222 -0.22247 -0.17268 0.33565 -0.33528 -0.047751 -0.17675 0.068292 0.032222 -0.2118 0.17559 0.17082 0.21658 0.18925 0.19637 -0.30401 -0.19472 -0.13672 0.25009 -0.13696 0.14237 -0.040534 -0.011149 -0.44772 0.015812 0.16699 -0.030719 -0.41892 0.13092 -0.072512 0.17594 -0.34449 -0.59777 -0.35821 0.18151 0.21939 -0.087998 -0.34601 -0.10742 -0.15516 0.25141 -0.25111 0.25854 0.083403 -0.11306 -0.63971 -0.21105 0.087804 0.54425 -0.028311 -0.23898 0.022702 -0.10198 -0.26742 0.089304 0.6149 -0.2223 0.25553 -0.20713 -0.31041 -0.16549 -0.016507 0.23333 0.20299 -0.0050686 -0.091343 0.076355 -0.055525 0.095826 0.37101 -0.0099953 0.63447 0.18734 0.28428 0.53359 -0.096138 -0.49276 0.44787 0.22639 -0.35271 0.61429 0.10375 0.11666 -0.10027 -0.675 -0.12702 -0.0088856 0.096463 -0.5547 0.018102 -0.26599 -0.21331 0.21867 -0.49613 -0.25319 -0.10128 0.12909 -0.2844 0.3663 -0.64439 -0.067776 -0.63408 -0.048558 0.42249 -0.47 -0.5608 0.52845 0.43719 -0.049211 0.2372 0.033696 -0.22043 0.105 0.083381 0.17324 -0.10202 -0.012396 -0.25894 0.10672 0.36879 -0.364 -0.2688 -0.24811 0.3547 -0.23336 -0.3688 -0.064958 -0.61159 0.14856 0.30595 -0.38382 -0.53751 -0.99241 0.22752 -0.43081 0.41045 0.58917 -0.1994 0.11645 0.11364 -0.15054 0.12973 0.82417 0.31541 -0.15943 -0.15482 -0.35592 -0.098542 -0.26271 -0.066355 0.12556 -0.052847 0.1995 -0.49499 -0.25562 -0.26204 -0.069165 -0.15865 -0.3395 0.047211 0.088682 0.17995 0.19595 0.27583 0.13366 0.1565 0.41684 0.19695 -0.2722 -0.32688 0.56329 -0.66193 -0.39314 -0.24265 -0.11366 0.46398 0.048383 0.15522 0.012046 -0.29875 0.5177 0.26616 -0.02346 0.073808 -0.10722 -0.070706 -0.019994 -0.59062 0.58314 0.067736 -0.20062 0.094033 -0.1709 0.17437 -0.1424 0.63165 0.25507 -0.15852 -0.14101 -0.72046 -0.1251 0.30147 -0.19616 0.06283 0.16514 -0.087159 -0.0095604 0.067766 0.31601 0.043298 0.0101 -0.37211 0.55761 -0.25346 -0.34817 0.14049 -0.26551 0.27576 0.63766 0.30166 0.23072 -0.098634 0.16368 0.018582 0.0045079 -0.33444 0.2148 -0.29679 -0.22635 0.32338 -0.19281 -0.2643 0.13745 0.22005 -0.1127 -0.16279 0.030981 0.098884 -0.0025946 0.37894 -0.46416 -0.3038 0.35086 -0.016972 0.060344 -0.094178 0.040955 -0.086941 0.31246 -0.31915 -0.25251 -0.080175 0.28787 -0.023194 -0.40311 -0.1691 -0.24128 -0.27626 0.43234 -0.31625 -0.07312 0.012586 -0.22436 0.54284 0.25729 0.22853 0.3738 0.13647 0.14126 0.00032652 0.45828 0.34361 -0.22707 0.20335 0.59856 -0.46782 -0.2515 0.081015 0.30205 -0.088924 0.59868 0.31826 0.0020448 0.34519 0.18817 0.26183 0.34114 0.32955 0.42749 -0.63099 -0.39925 -0.0015209 0.17697 0.2878 0.078321 -0.40848 -0.20264 0.30646 
каде -0.041208 0.12458 -0.2927 -0.2821 0.060092 -0.058131 -0.25319 -0.56537 -0.10274 -0.23936 -0.044103 -0.35538 0.12799 -0.11659 0.01092 0.1803 -0.066108 0.11252 -0.029411 -0.027988 0.21786 -0.031136 0.18598 0.081976 -0.021326 -0.38009 0.15013 -0.022391 -0.12596 0.076191 -0.21248 0.059631 -0.080831 0.24622 -0.097919 -0.0099366 -0.2481 0.12179 0.15211 -0.25788 -0.243 0.017269 0.062795 0.47573 -0.053244 -0.26697 -0.12012 -0.28847 -0.12519 0.043835 0.062675 -0.075695 0.070553 -0.044837 0.066415 0.045245 -0.14231 -0.064846 0.22101 -0.043048 0.028037 -0.20753 0.089944 0.045201 0.1073 0.38794 -0.13447 0.17337 -0.22136 0.16513 0.27305 -0.022431 0.31458 0.37365 0.047326 0.092298 -0.031096 0.2171 0.20744 0.074667 -0.056445 -0.20102 0.21097 -0.045188 -0.048183 -0.21601 0.12369 -0.44505 -0.096732 0.32887 -0.35746 0.1261 -0.09425 0.13146 0.020302 -0.20656 -0.12306 -0.1963 0.16913 -0.030262 0.067672 -0.10466 0.12877 -0.039697 -0.12762 0.049213 -0.43011 -0.15671 0.23412 0.17779 -0.0065391 0.13711 0.06396 -0.039342 0.044606 0.21108 -0.079839 0.27702 0.11244 -0.24599 -0.0062197 -0.22558 -0.2037 0.2813 -0.091714 -0.29821 -0.082129 0.18292 0.07339 -0.25855 0.11675 0.0090563 -0.030501 -0.35743 -0.1535 -0.099482 -0.094014 0.15919 0.18309 -0.28841 -0.064728 0.3047 -0.0060078 -0.47068 0.30675 -0.10017 -0.043716 -0.14255 -0.11792 -0.056112 -0.078367 -0.21806 0.11862 -0.056727 -0.10924 0.081281 -0.026073 0.19374 0.094142 0.24087 -0.030006 0.25414 -0.14161 0.057967 0.040848 -0.016793 -0.00010509 -0.14899 -0.10164 -0.057414 0.15745 0.24764 -0.17193 0.11981 -0.18488 -0.26305 -0.13672 0.054617 0.11713 0.26445 0.15642 -0.065237 -0.1953 0.27528 0.17066 0.17643 -0.037872 -0.037577 0.091976 -0.25972 -0.095331 0.10488 -0.073408 0.40302 0.19562 -0.062065 0.16589 0.34224 -0.0059401 -0.31858 0.27698 0.35488 0.1645 -0.34099 -0.019056 -0.041739 0.57704 -0.17169 -0.245 -0.0071733 -0.045696 0.13101 -0.1538 -0.027821 0.14306 0.20189 -0.0075551 0.23996 0.14971 0.1529 -0.0033117 -0.11145 -0.037745 -0.011651 -0.37252 0.08635 -0.11057 0.064711 -0.22791 -0.11092 -0.020189 0.21582 -0.15437 0.093117 0.17417 -0.27472 -0.20888 0.043518 0.030715 0.15006 0.10339 -0.21222 -0.13837 -0.07224 0.24473 0.1866 0.39551 0.0097888 0.035205 0.010374 0.059774 0.13038 0.11286 -0.30634 0.042356 -0.10636 0.26764 0.10698 -0.29767 -0.10179 0.075782 0.24099 0.050315 0.17611 0.095223 -0.15682 0.024489 0.31022 -0.24336 0.4141 -0.28992 -0.036656 0.22438 -0.45725 -0.23282 -0.07223 -0.023424 -0.37661 -0.095965 -0.17029 0.12363 -0.26163 -0.18427 0.3685 0.14932 0.0090783 0.2606 -0.37724 0.025049 0.15082 0.30512 -0.065521 0.0951 0.0043724 -0.06028 -0.22875 0.26289 -0.32049 0.14678 -0.019126 
годината 0.53135 0.036791 0.039256 -0.26146 -0.96918 0.15308 0.0071355 0.24339 0.21657 -0.33805 -0.019993 -0.69106 -0.47128 0.39981 -0.47774 -0.2864 0.27872 -0.49247 -0.43443 -0.69407 0.3387 0.079834 0.17568 -0.56485 0.079548 -0.99157 -0.68267 0.080484 -0.25262 -0.54439 -0.12854 -0.30035 0.27061 0.22779 0.047357 -0.4767 -0.22172 -0.0064106 -0.44649 -1.1119 0.25312 0.19738 -0.12815 -0.20245 0.057611 -0.22701 -0.24701 -0.30823 0.30078 0.65838 -0.055659 0.36487 -0.27953 -0.16744 -0.038657 0.19481 0.32693 -0.10688 0.3744 0.20778 0.024621 0.19502 -0.2974 -0.28089 0.52306 -0.29469 0.023114 0.030257 -0.13092 0.10807 0.18674 0.020285 0.2244 -0.035686 0.34809 0.11027 -0.10261 -0.0070036 0.11577 0.17868 0.36203 -0.058025 0.33931 -0.11494 -0.10606 0.058576 -0.45037 -0.029686 -0.56357 0.66918 0.55553 -0.50831 0.18771 -0.46827 -0.82509 -0.51058 0.34921 -0.3087 -0.0080516 0.001876 0.14774 0.29145 0.16417 0.0034954 -0.2251 0.41393 -0.2852 -0.14206 0.90719 -0.11307 0.41533 -0.56383 -0.49028 -0.074062 -0.58276 -0.1857 0.27923 0.020191 -0.39375 0.47342 0.047153 0.14709 -0.43817 0.41424 0.35188 0.052861 -0.29366 0.088984 0.43352 -0.84052 -0.27511 0.30356 -0.29962 -0.51185 -0.43664 0.0024519 -0.13484 0.26832 0.47166 -0.051723 0.82938 0.6593 0.15331 0.024689 0.39657 -0.41863 -0.11062 -0.55405 -0.62035 0.083727 -0.050339 0.21709 -0.017582 -0.30101 0.0050675 -0.062678 0.29713 -0.32082 0.066012 0.33745 -0.23462 0.63813 -0.47613 0.11453 0.89328 -0.34447 -0.10603 0.050698 0.44607 -0.14032 -0.013335 0.54259 -0.87302 -0.22719 0.31926 -0.55382 0.14514 0.21516 0.416 0.64526 0.35905 0.083135 -0.26195 0.34732 -0.15281 -0.054434 0.49625 -0.25114 -0.50928 0.058122 -0.14406 -0.35122 0.086953 -0.28456 -0.5701 0.05535 -0.34682 -0.43871 -0.21199 -0.30851 0.94891 -0.29643 -0.11271 -0.17299 -0.075234 -0.16336 0.15253 0.19416 -0.028111 0.14821 -0.052842 -0.38938 -0.60856 -0.25246 -0.70383 -0.36454 0.18382 -0.78429 -0.31828 -0.47972 -0.77685 0.51001 -0.71174 0.52199 -0.34063 -0.012014 0.50927 0.14012 0.20612 0.26887 -0.36302 0.062318 -0.48737 0.083743 0.63491 -0.12434 0.21902 0.24117 -0.58896 0.1991 0.34198 0.019118 -0.38636 0.25233 0.44993 0.36815 -0.35183 -0.02861 -0.3946 -0.28014 -0.19034 -0.28576 -0.065164 0.859 -0.14814 0.31118 0.89899 0.90184 -0.24578 0.16325 -0.014271 -0.27411 0.08812 0.64459 -0.79029 0.34647 0.44426 0.1702 -0.11469 -0.055248 -0.59464 -0.016594 -0.0071661 -0.17093 -0.41781 -0.12205 0.70192 -0.50668 -0.15069 0.35854 0.84909 0.15593 0.18998 0.54111 -0.21965 0.35163 0.91075 -0.42455 0.05872 0.35638 -0.0063913 -0.60851 0.56045 0.011168 0.076131 0.67043 0.57383 -0.29698 -0.7764 0.48472 
многу -0.070299 0.067639 -0.05611 -0.13415 0.13827 0.21443 -0.010171 -0.071969 -0.034377 0.080581 0.19676 -0.0073037 0.17832 -0.27488 -0.1663 0.11253 0.12847 -0.17806 -0.18241 -0.27799 0.084986 -0.0064569 0.08921 -0.031227 0.011243 -0.25941 -0.05478 0.22624 -0.17677 0.044714 0.032057 -0.10115 0.1651 0.24107 -0.18728 -0.15569 0.044834 0.30087 0.13519 0.088825 -0.002616 -0.0075655 -0.15237 -0.014806 -0.020514 0.087676 -0.2404 -0.23575 -0.18331 0.4332 0.28293 -0.087274 -0.12001 0.042815 -0.29779 0.011973 0.28898 -0.042631 0.16253 -0.066623 0.24637 -0.044575 0.080773 -0.28515 0.26257 0.18531 0.032344 0.3691 -0.10108 -0.018235 0.060903 -0.096533 -0.13721 0.029365 -0.10094 0.1818 0.051926 0.1877 -0.054011 0.29258 0.027731 -0.3721 0.20603 -0.038823 -0.019857 -0.068075 0.12917 -0.056125 -0.1337 0.051084 -0.12249 -0.021587 0.042052 0.075171 -0.16264 -0.22383 0.16488 0.047912 -0.21211 -0.21218 0.21525 -0.0050195 0.1366 -0.0057407 -0.11501 0.076818 0.029676 -0.06792 0.050846 -0.098964 0.019107 -0.052828 -0.015899 -0.062418 -0.13747 -0.10123 -0.15775 0.34942 0.077491 -0.0030641 -0.041785 0.058679 0.038155 -0.01398 0.03735 -0.19533 0.15514 0.0045564 0.50239 -0.30978 -0.25141 -0.22715 -0.31065 -0.47931 -0.08794 -0.1477 -0.14131 0.086441 0.082976 -0.054504 -0.21075 0.086682 0.15395 0.2496 0.21842 0.015644 0.29897 0.038589 -0.066323 0.31787 0.053966 -0.22117 -0.38309 -0.19897 -0.084438 0.03496 -0.099799 0.19925 0.15284 -0.089166 -0.079555 0.075224 -0.22928 -0.031191 -0.011178 -0.1874 -0.0055004 0.16577 -0.13402 -0.061937 0.16663 -0.081249 0.062057 -0.096706 -0.17213 0.10964 -0.29345 0.19701 0.28903 0.062626 0.10793 -0.17626 -0.086305 0.07769 -0.034149 -0.055337 -0.15147 -0.23263 0.17364 0.064254 0.040108 -0.10324 0.00090303 -0.10051 0.28341 -0.13484 0.078499 0.26796 -0.053643 -0.2068 0.17314 0.086146 0.14999 0.02903 -0.054881 -0.25718 -0.10276 0.12004 -0.11086 -0.15901 -0.012903 0.18572 -0.13911 0.032214 0.014857 0.065567 0.045559 -0.13044 -0.16025 -0.08432 0.25161 0.15684 0.087713 -0.079501 -0.054151 -0.20632 0.0062414 -0.17957 -0.063147 -0.23961 0.15998 -0.077528 -0.037598 -0.040807 0.042276 0.14317 0.18658 -0.15566 -0.06101 0.074213 0.077432 0.25073 -0.047556 -0.30667 0.12941 0.22009 0.22766 -0.03222 -0.014649 -0.04971 0.11518 -0.088048 -0.21052 0.025685 0.22961 0.078382 0.1895 0.021223 -0.087046 -0.067488 0.021757 -0.052493 0.44778 0.31313 -0.11201 -0.094274 0.34493 -0.072984 -0.0054503 0.23893 -0.085187 0.17382 -0.019831 -0.089386 -0.054251 -0.017998 0.046551 -0.37319 0.15175 -0.14614 -0.054956 -0.087881 -0.024324 0.42604 0.21759 0.22265 0.15153 -0.13542 0.18221 -0.0092102 0.088686 -0.047963 -0.21979 -0.16182 0.24184 0.14 0.0057839 0.20835 0.064068 0.14955 
објекти 0.063925 -0.0044798 0.12258 0.094231 -0.23824 0.48976 -0.27686 -0.0019291 0.078288 0.24856 -0.13961 -0.35521 -0.14483 -0.10054 -0.33216 -0.14554 -0.21059 -0.29111 0.093168 -0.52654 0.33291 -0.55106 0.030339 -0.22181 0.034207 -0.33491 0.014346 0.1722 -0.13972 0.3756 -0.050602 -0.01765 -0.4806 -0.17416 0.054898 -0.62453 0.28217 0.73743 0.33141 -0.0868 0.65046 0.056181 -0.29023 0.050694 0.078365 -0.046737 -0.86425 -0.22694 -0.17669 0.15662 -0.073871 -0.12696 0.13634 -0.41865 -0.41489 -0.40489 0.084195 0.041972 0.13723 -0.4843 -0.45498 -0.12906 -0.49077 -0.56199 -0.23149 0.33827 0.3348 0.64658 0.50687 -0.48702 -0.062248 -0.29559 -0.13644 0.94531 -0.14055 0.041614 0.79063 -0.16058 -0.12339 0.031699 0.079168 -0.48016 0.20082 -0.34437 -0.037573 -0.032105 -0.15938 -0.23774 -0.25711 0.28505 -0.60117 -0.41743 0.41801 -0.45535 -0.30138 -0.035149 -0.22854 -0.319 0.40381 -0.055343 -0.22754 -0.91824 0.11223 -0.031505 -0.25428 0.63629 -0.7746 -0.12067 0.14386 0.5291 0.11057 0.02484 0.017555 -0.13329 0.079399 -0.36971 -0.47579 -0.56295 0.19891 0.28895 0.28871 0.019128 0.037489 0.015763 -0.54702 0.040833 -0.20269 0.059785 0.09892 0.24967 0.19732 0.56538 -0.44053 -0.97662 -0.72594 0.28288 -0.57288 0.04959 -0.25448 -0.58677 -0.10022 0.29089 0.059388 -0.42543 0.65653 0.16552 0.54893 0.23128 -0.36012 -0.0059532 -0.32716 0.1052 0.039909 -0.84321 -0.14084 0.27046 -0.10546 -0.048408 -0.14636 0.45929 0.012372 0.34767 -0.042703 0.22021 -0.10648 0.17219 -0.80111 0.24926 -0.31837 0.090285 -0.061379 0.36373 -0.083208 -0.050551 0.046306 0.51286 -0.14072 0.28006 0.31239 -0.3793 0.47785 -0.45221 -0.22984 0.096241 -0.065033 -0.39324 0.17692 -0.36319 0.023429 -0.78963 -0.54381 -0.27926 -0.25671 -0.023695 -0.18764 -0.33879 0.33269 -0.55523 0.36459 -0.088716 -0.12235 -0.24154 0.11904 0.10527 0.64795 0.22776 0.31267 -0.36864 0.48017 0.045672 0.0085593 -0.37022 -0.30971 -0.069334 0.086038 0.12344 -0.10317 0.090626 -0.44365 0.26858 0.62388 0.53188 0.40506 -0.47152 -0.50145 -0.17478 0.38921 -0.49851 0.21177 0.055266 0.28425 -0.025906 -0.074054 -0.14452 0.44796 0.070677 0.46975 0.46385 0.28695 -0.56376 -0.19302 -0.0068165 -0.43813 0.47052 0.15208 -0.22272 0.044691 0.74474 0.50572 0.14311 0.20715 -0.21245 -0.24137 -0.26786 -0.27792 0.5216 0.084048 0.099145 -0.1007 0.17878 -0.28424 0.25318 0.062826 1.0005 -0.53132 0.91876 0.28755 0.042701 -0.41736 0.54724 0.30276 -0.30894 0.48226 -0.033083 -0.52824 0.37169 0.26713 -0.4239 0.86532 0.13232 0.57955 -0.11961 -0.32212 0.36958 0.54015 0.10386 -0.22476 0.15882 0.048755 -0.65832 0.70032 0.37959 0.17752 -0.28315 -0.60102 0.16494 0.23229 0.1001 -0.20687 -0.049834 
г -0.027085 0.29411 -0.02922 -0.11665 -0.23279 -0.15306 0.022533 -0.12193 0.3962 0.45406 0.16338 0.12504 -0.18095 0.47952 0.49442 -0.23933 0.20727 -0.50513 0.31653 -0.25127 -0.02367 -0.28845 0.1452 -0.084571 -0.40406 -0.2942 -0.40745 0.2143 0.1624 -0.043228 0.47022 -0.20499 -0.3263 -0.058584 -0.20153 -0.33188 -0.054068 0.37569 -0.46183 -0.31038 0.091081 0.14655 -0.049935 0.021375 0.22882 -0.68608 0.12751 -0.42902 -0.33681 0.48957 0.20185 -0.033765 -0.049844 -0.26138 0.40344 -0.23676 -0.23431 0.047076 0.29044 -0.376 0.069267 0.12668 -0.15176 0.040954 0.39831 0.027169 -0.063377 0.17022 -0.39083 0.10873 0.35986 0.13106 -0.082656 0.20365 -0.36339 0.23292 0.01587 0.065168 0.039906 -0.18766 0.052421 -0.25636 0.3336 -0.035109 0.55104 0.035904 -0.27814 0.12734 0.57949 0.41654 0.11779 -0.076319 -0.21087 0.11911 -0.039712 -0.062635 -0.027983 -5.5857e-05 -0.17292 -0.25646 -0.024768 -0.15552 0.051535 -0.46852 0.19084 0.73942 -0.33989 -0.23336 0.26589 -0.076256 0.35431 -0.38215 0.20338 0.26629 -0.11136 0.32973 0.44749 -0.09919 -0.23304 -0.15587 0.21938 0.32346 -0.23117 0.25363 -0.11265 -0.24876 0.06437 -0.032526 0.17867 -0.30299 -0.11868 0.13474 -0.074877 0.20072 -0.13879 -0.28374 -0.35873 -0.0097639 -0.01764 -0.47213 0.2203 0.089377 -0.087865 -0.42535 -0.2114 -0.20983 0.087406 -0.17845 -0.073465 -0.17966 0.18498 -0.17563 0.25783 0.015811 -0.088559 0.22615 -0.20892 0.30881 -0.014862 0.20568 -0.040306 -0.34799 -0.0078217 -0.0047979 -0.0775 -0.26035 -0.014989 0.088201 0.14168 -0.44565 0.21719 0.37896 -0.35187 0.032366 0.114 -0.052228 0.23454 -0.070941 0.014101 0.068893 -0.13295 -0.30741 -0.15561 0.052143 0.1869 -0.39738 -0.089534 -0.1293 0.28652 -0.55803 -0.14989 -0.19656 0.10611 0.25044 -0.4587 -0.098051 -0.45488 -0.13307 0.022772 0.099919 0.58325 0.31344 -0.29548 -0.26904 -0.456 0.23154 -0.27366 0.27806 -0.46268 -0.25942 -0.018571 0.027218 -0.43246 0.074383 -0.11764 -0.23714 0.14094 -0.63064 0.12063 -0.34607 -0.20988 0.50721 -0.62194 0.19744 -0.33681 -0.1697 0.28539 -0.040701 -0.14254 0.26714 0.077346 0.019559 0.027929 0.039145 0.17238 -0.23971 0.1595 -0.025848 -0.13823 0.094039 0.0037957 -0.26279 -0.13479 -0.15259 0.41311 0.23055 -0.32505 0.14562 -0.17458 0.033695 -0.11669 -0.67391 -0.40721 -0.25709 -0.14967 0.13326 0.051026 0.15556 0.02147 -0.33393 0.033554 -0.086722 0.081442 0.6807 -0.10636 -0.050971 -0.12155 0.09406 0.31829 0.22864 0.048778 0.19986 0.32354 -0.54615 -0.37494 0.041577 0.57123 -0.27601 -0.026366 0.012491 -0.10166 -0.094039 0.061807 0.19665 -0.0053711 0.24606 -0.38322 0.15982 0.47787 -0.15394 0.12607 -0.30974 0.23192 0.16955 0.42344 0.15022 0.12884 -0.41331 -0.41021 -0.28833 
години 0.23158 -0.23646 0.085623 -0.38179 -0.073671 0.28429 -0.22973 -0.059203 -0.029468 0.052909 -0.06522 -0.23492 -0.31977 0.14196 -0.050915 0.29881 -0.10776 -0.02966 -0.07633 -0.26474 0.24467 -0.26777 0.046929 -0.18566 0.015746 0.036379 -0.13396 0.47123 -0.26576 -0.18289 0.21348 0.18962 -0.1431 0.18046 -0.17348 0.1837 0.034052 0.28482 -0.13694 -0.086182 0.37008 -0.066009 -0.1819 -0.10041 0.21787 0.029997 0.1104 -0.5404 -0.085222 0.030074 0.32453 -0.091324 -0.036346 -0.30291 0.034055 -0.35338 0.091693 0.097115 0.025162 -0.30147 0.31006 0.33096 0.031041 -0.1803 0.24929 -0.18602 0.029286 0.36979 -0.19094 0.30259 0.017122 -0.098863 0.02839 -0.21093 -0.089883 0.058404 0.29651 0.14983 0.048024 0.204 -0.14617 -0.42787 0.32279 -0.19076 -0.22389 0.16858 -0.068211 0.26512 0.03227 0.2851 0.010658 0.13663 -0.099298 0.21876 0.32675 -0.52726 -0.40702 -0.11546 0.42408 -0.0090099 0.12705 -0.19462 0.062166 -0.27015 0.35611 0.22143 0.17248 -0.05096 -0.13036 -0.039898 -0.076444 0.21554 -0.034583 -0.047291 -0.22792 -0.060681 0.20446 -0.043339 -0.54438 -0.0080013 0.11991 -0.026135 -0.03925 0.32975 -0.14576 0.11792 0.03496 0.18813 0.31418 0.10943 -0.044599 -0.00073762 -0.02213 0.0053647 0.28031 -0.19695 -0.089145 0.11825 0.34769 0.11486 -0.030169 -0.051646 0.20082 -0.24234 0.13917 -0.29931 0.088796 0.38302 -0.22637 -0.099607 0.096411 -0.48206 -0.12542 0.14534 -0.36008 0.077112 -0.11927 0.029687 0.11579 0.15175 0.10415 0.37758 -0.044478 0.20061 0.13491 -0.38826 -0.25928 0.10168 -0.085442 0.049292 0.58125 0.22053 -0.14816 -0.063713 -0.21515 -0.29333 0.043992 0.0088425 0.41329 0.43974 -0.18507 -0.64547 -0.19964 0.41816 -0.20286 -0.080422 0.34915 -0.0015953 -0.12269 -0.13721 -0.14067 0.06237 -0.019128 0.10213 -0.34378 -0.0010763 -0.087645 -0.039278 0.046459 0.27548 0.13962 -0.11509 0.052162 -0.02165 0.18124 0.21143 0.44178 -0.086165 -0.070975 -0.051388 0.13243 0.15159 -0.25148 -0.097116 0.19521 0.15077 -0.074838 -0.34973 0.4288 -0.52465 -0.40386 0.082036 -0.061339 -0.045051 -0.4988 0.36238 -0.29518 -0.087762 -0.27041 -0.13647 0.23231 -0.19899 0.21843 0.19351 0.081146 0.15856 -0.024635 0.28988 -0.22881 0.052872 -0.20735 0.12815 -0.22856 0.11229 0.32986 -0.026429 0.16858 -0.41312 -0.08908 -0.048327 -0.080224 0.013704 -0.25862 -0.091479 0.27173 0.1105 0.11276 -0.039523 -0.30011 0.050655 0.065964 0.0012423 0.0017586 0.43379 -0.17962 0.21466 0.35819 -0.13233 -0.19402 -0.080881 -0.29871 -0.33315 0.23359 -0.084664 -0.060833 0.23157 0.22494 -0.2435 -0.31778 -0.046036 0.018688 -0.091694 -0.0212 0.45932 -0.20892 0.28761 -0.23367 0.12219 0.34211 0.26073 0.28812 -0.0011966 0.027493 0.15269 0.1319 -0.040323 0.45049 0.03013 0.024421 -0.13111 
